typedef float data_type;
data_type kernel1_weight[11][11][1][64] = {0.34487, 0.018804, 0.0028244, -0.33468, 0.11913, -0.1887, 0.033708, 0.43542, 0.24928, -0.31582, -0.12592, -0.48491, 0.38249, -0.10454, 0.24529, 0.029256, -0.18435, 0.14603, 0.097016, 0.20626, 0.17393, 0.072824, -0.44365, -0.45748, 0.1807, -0.066873, -0.066356, 0.23911, 0.00063197, -0.1563, 0.20044, -0.45145, -0.096897, 0.3463, 0.11556, 0.26945, -0.31786, -0.033636, 0.36558, -0.28226, -0.26046, -0.39685, 0.16661, -0.012974, -0.21542, -0.24411, 0.044157, 0.40273, -0.42954, 0.0027737, -0.49121, 0.27901, 0.29219, 0.0057257, -0.2314, 0.11384, -0.22744, 0.043365, 0.075341, 0.023576, -0.41876, -0.37376, 0.22376, -0.05899, -0.30744, -0.03842, 0.061491, -0.49013, 0.17214, 0.22517, 0.043787, 0.16829, -0.086408, -0.010755, 0.042616, 0.14556, -0.22608, -0.17241, 0.23345, -0.1997, 0.49324, 0.28046, -0.037665, 0.20756, -0.23036, 0.31219, 0.40199, 0.26779, 0.42069, 0.065966, -0.036168, -0.42605, 0.33916, 0.2304, -0.051506, -0.4509, -0.37767, -0.31511, -0.29286, 0.263, -0.31881, 0.21192, -0.25598, -0.00023622, 0.36977, -0.15435, -0.42617, -0.39855, -0.14382, 0.24867, -0.016311, 0.2299, -0.013098, -0.24094, -0.0043287, -0.33953, 0.091557, -0.33843, -0.23871, 0.31142, 0.12121, 0.17466, 0.4258, -0.1717, -0.30522, 0.0095554, -0.48825, 0.34339, -0.37705, -0.14479, -0.49468, 0.090547, 0.094847, 0.033649, -0.24702, -0.022562, -0.19899, 0.23277, -0.44966, -0.27676, -0.28522, 0.41923, 0.184, -0.30995, -0.17467, 0.4864, 0.22897, 0.49832, 0.49288, 0.18694, -0.30009, 0.32928, 0.20876, 0.10359, 0.33989, 0.26198, -0.49531, -0.26486, -0.09959, -0.32112, 0.28444, 0.39004, -0.057952, -0.46959, 0.16653, 0.27076, -0.2942, 0.24206, -0.21291, -0.25908, 0.18117, 0.43483, 0.41093, -0.015911, 0.13063, -0.090922, 0.2223, -0.42273, -0.23908, 0.18707, -0.2515, -0.41657, -0.21162, 0.037204, -0.1936, -0.26635, -0.22438, 0.35572, -0.34895, 0.41535, -0.18584, 0.47989, 0.49748, 0.39632, 0.41924, -0.31462, -0.13563, -0.32203, 0.20293, 0.1812, -0.24631, 0.20558, -0.11589, -0.25091, -0.29259, 0.45434, -0.34849, 0.033403, 0.34476, -0.37779, -0.27714, 0.13271, 0.4095, -0.39833, -0.077772, 0.2664, 0.27077, 0.40109, 0.20415, 0.35514, -0.17478, -0.29723, -0.14671, 0.056219, 0.40221, -0.43511, 0.21875, 0.33664, 0.46857, 0.29725, 0.37483, -0.36498, 0.25781, 0.031025, 0.49131, -0.32069, 0.019605, -0.37141, 0.33452, 0.22498, -0.12527, -0.37917, -0.38108, 0.054511, 0.48048, 0.018586, 0.48804, 0.034474, 0.46137, 0.22049, -0.26633, 0.46791, -0.020079, 0.14865, -0.4873, 0.45368, 0.084547, -0.24556, 0.47182, 0.46392, -0.17652, -0.20519, -0.45585, -0.34893, 0.10279, 0.23114, -0.23096, -0.39858, 0.31407, 0.44085, 0.095466, 0.25574, 0.31645, -0.19474, 0.22138, -0.28479, -0.46056, 0.24112, -0.28386, -0.40718, -0.3961, -0.082239, -0.49305, 0.091078, -0.273, 0.28195, -0.37977, -0.37376, 0.11407, 0.26884, 0.40083, 0.015181, -0.038536, 0.012352, 0.3394, -0.068989, -0.42858, 0.47403, 0.4544, -0.4571, 0.13689, 0.26844, 0.27404, 0.2551, 0.4832, -0.41187, 0.33177, 0.068277, 0.31353, -0.41773, 0.2062, 0.23747, 0.48993, 0.16274, 0.27018, 0.2645, 0.28433, 0.36029, -0.12564, 0.070801, -0.051263, 0.12325, -0.038479, 0.30675, -0.18899, 0.46392, 0.26686, -0.052101, 0.13346, 0.11573, -0.30177, -0.34447, 0.02716, -0.18497, 0.49714, -0.19449, 0.1651, -0.13281, -0.37745, 0.18361, 0.29013, -0.35771, -0.07525, 0.19002, 0.29525, 0.056956, -0.32064, 0.3685, -0.104, 0.090515, -0.18143, 0.20624, -0.2454, 0.18634, 0.12521, -0.085194, -0.042611, -0.079869, 0.45641, -0.30016, -0.46845, 0.33789, 0.26669, 0.19947, 0.029314, -0.24973, -0.081684, 0.038247, -0.1257, -0.39048, -0.16884, -0.24517, -0.025285, -0.048963, 0.27618, -0.0014242, 0.46294, -0.39847, -0.24506, 0.14676, -0.41045, -0.38082, 0.34515, -0.25, -0.1089, -0.37329, 0.023555, 0.43515, 0.44668, -0.10465, -0.27762, 0.10857, 0.25333, -0.30614, 0.15399, -0.11672, -0.0027102, 0.39031, 0.073132, -0.19286, -0.48338, -0.31178, 0.031047, 0.18088, 0.11289, -0.43249, 0.13307, 0.019506, -0.024276, 0.25127, 0.27634, -0.39358, 0.26291, 0.29949, 0.077143, -0.0043703, -0.45616, -0.38054, 0.010016, -0.1443, -0.28291, 0.48848, 0.015793, -0.46959, -0.47585, 0.43519, 0.05437, -0.32058, -0.12518, 0.26031, -0.30994, -0.25255, -0.14583, -0.21592, -0.34018, -0.39098, -0.098126, 0.14626, -0.32563, -0.10584, 0.31499, 0.35672, 0.25376, 0.075336, 0.17549, -0.41094, -0.20555, 0.066042, 0.099636, -0.3251, -0.411, -0.48456, -0.26854, -0.05623, -0.48543, -0.29588, 0.06141, -0.28528, -0.24904, 0.06814, 0.28537, 0.033761, 0.29883, -0.28709, 0.4596, -0.34442, 0.46554, -0.33218, -0.36991, 0.076635, -0.14126, 0.085157, 0.10287, -0.054513, -0.032777, -0.18918, -0.37083, -0.075968, -0.35449, 0.12027, 0.10357, 0.4513, -0.11595, 0.25167, -0.17946, 0.067073, -0.24989, -0.30913, 0.31704, -0.18674, -0.45012, 0.10764, -0.021725, 0.099352, -0.12954, -0.36303, -0.42993, 0.29051, 0.29797, -0.37357, -0.01291, -0.49052, 0.091631, 0.30367, -0.38908, -0.49063, 0.010598, 0.1614, 0.16148, -0.32025, -0.30318, 0.44985, 0.34349, 0.28726, -0.44242, -0.41181, -0.12885, -0.022076, 0.09527, -0.083899, -0.071668, 0.021659, 0.431, -0.039566, -0.19692, 0.1954, 0.23626, 0.041121, 0.38391, 0.075459, 0.34439, -0.040143, -0.0072792, -0.079598, -0.13305, 0.47554, 0.17734, 0.35675, -0.13948, -0.34407, 0.018506, 0.051143, -0.071423, -0.058583, -0.30172, -0.21139, -0.36719, 0.25059, -0.34151, 0.040577, -0.46815, 0.48405, 0.49541, -0.45128, 0.25148, -0.25976, 0.4002, -0.24837, -0.19945, 0.40438, -0.088311, 0.00010367, 0.20467, 0.044212, 0.10466, -0.28128, -0.37171, 0.22104, -0.29346, 0.27656, -0.27869, 0.092966, 0.064809, -0.20842, 0.47949, -0.0057949, -0.17016, 0.18896, -0.38875, 0.36849, -0.2599, 0.34987, -0.14088, -0.2679, -0.49412, 0.25387, -0.44047, 0.19431, 0.34091, 0.078322, -0.14109, 0.47746, 0.18856, 0.39953, -0.39189, -0.19209, -0.18408, -0.12511, 0.1185, 0.23119, 0.29353, -0.32426, -0.42547, 0.18019, -0.11165, 0.058282, -0.49902, -0.26381, 0.029099, -0.32915, 0.43462, 0.43933, 0.26473, -0.32153, 0.34927, 0.049891, 0.14132, 0.038443, 0.0088567, -0.057282, -0.36011, -0.32651, -0.42693, 0.087184, -0.19518, 0.42353, 0.47037, -0.44013, -0.23741, -0.053146, -0.37032, -0.21103, 0.10938, -0.042535, 0.081119, -0.021437, -0.22269, -0.40474, -0.39516, 0.36409, 0.34779, 0.20053, 0.4074, 0.0057794, -0.32727, 0.30872, -0.48658, -0.17764, 0.12115, -0.41598, -0.29861, 0.19064, -0.01192, 0.28234, 0.28814, 0.18492, -0.16428, -0.28724, 0.3123, -0.39162, -0.27942, 0.16217, 0.3758, 0.013149, -0.29926, 0.070384, -0.3765, -0.35847, 0.4596, -0.070195, -0.28709, -0.25895, -0.48474, 0.21863, -0.33301, -0.17222, -0.44859, -0.022928, -0.21483, 0.05655, 0.38572, 0.23614, 0.1752, -0.15018, 0.33449, 0.26674, 0.12779, 0.28908, -0.23466, 0.23114, 0.081705, -0.3175, -0.035216, 0.42159, 0.34189, 0.38532, 0.26211, -0.33102, 0.45016, 0.32071, 0.23581, -0.14139, -0.40565, 0.38235, 0.10218, -0.32772, -0.39505, -0.3028, -0.27551, 0.29897, 0.05058, -0.14732, -0.27175, 0.13834, -0.22454, -0.46781, 0.031792, 0.16395, 0.44281, 0.16014, 0.38382, 0.1051, 0.0069304, 0.16135, -0.22566, -0.41319, -0.13684, 0.11405, 0.472, 0.23441, 0.18454, -0.14959, 0.15581, 0.40524, 0.082858, 0.367, -0.47104, -0.4644, -0.10148, 0.095338, -0.24973, -0.47184, 0.45847, 0.26874, 0.41587, 0.46939, 0.21461, -0.010114, 0.28367, 0.21361, 0.30224, -0.29827, -0.20426, -0.40582, -0.24674, 0.36863, -0.14674, -0.031605, 0.03581, -0.30692, 0.0084999, 0.037107, 0.01258, 0.43153, -0.35447, -0.017789, -0.34506, 0.078676, 0.25293, 0.060949, -0.14192, -0.24716, -0.31041, 0.065554, 0.12692, 0.18136, -0.3607, -0.31086, 0.38406, -0.38471, -0.39489, -0.37064, 0.2262, 0.053752, -0.24425, -0.27217, 0.46066, 0.38798, -0.28954, 0.028385, 0.15174, 0.18544, -0.11999, 0.047199, 0.1543, 0.28646, 0.18591, 0.39363, -0.30059, -0.047139, 0.43281, -0.066532, -0.24574, -0.039739, 0.16874, 0.056843, -0.47951, -0.030507, -0.20805, -0.018108, 0.37375, -0.11078, -0.39514, -0.10632, -0.39865, 0.15417, 0.03592, 0.17791, -0.49328, 0.2034, 0.45189, -0.29382, 0.13229, -0.040375, 0.28202, 0.18423, 0.48063, -0.17557, -0.35787, -0.069123, 0.045158, 0.4065, 0.2213, 0.47421, -0.2228, -0.11947, 0.37866, 0.23939, 0.14947, -0.03254, 0.17242, -0.059662, 0.24483, 0.30659, 0.36824, -0.24854, -0.32817, -0.20394, 0.33894, 0.34624, 0.28429, 0.31451, -0.18717, 0.14074, -0.26095, -0.082484, 0.098536, -0.26559, -0.33375, 0.035569, 0.18707, 0.0053059, -0.42887, 0.23592, -0.35481, 0.15821, -0.10251, 0.00622, 0.39774, 0.43478, -0.18927, -0.34423, -0.3709, -0.0031508, -0.36528, 0.14355, 0.13, -0.42856, 0.2149, 0.34301, -0.031688, -0.1041, 0.17678, 0.1809, -0.28461, -0.082371, 0.37785, -0.24878, -0.24095, -0.33406, -0.20172, 0.065193, -0.06356, -0.18744, 0.24672, -0.34853, 0.08203, 0.37309, 0.26501, 0.43316, 0.39227, 0.30321, -0.31506, -0.44803, -0.31384, -0.059559, -0.35325, -0.2651, 0.24728, -0.14893, 0.47128, 0.46324, -0.083381, -0.1558, -0.3056, -0.02848, 0.21337, -0.11813, -0.4692, -0.30799, -0.055675, 0.19409, 0.032626, -0.12091, 0.41063, 0.48481, 0.045247, -0.35856, -0.21765, 0.39964, 0.23345, -0.4152, 0.35256, 0.035094, -0.18873, 0.043233, -0.49819, 0.04953, -0.08605, 0.096302, 0.43958, -0.13541, -0.068327, 0.16049, 0.40355, 0.0096141, -0.38916, 0.49332, -0.24906, 0.050821, -0.27239, 0.28526, -0.15794, 0.18825, -0.42985, 0.12011, -0.41307, -0.31503, -0.14077, 0.30534, 0.19585, 0.38497, -0.40523, 0.14494, 0.10744, -0.45843, -0.1275, 0.023009, 0.21934, 0.045471, 0.42362, 0.21224, 0.3384, 0.4796, -0.39063, 0.44085, -0.48853, -0.42864, -0.036326, -0.12808, -0.16968, 0.001025, -0.20616, 0.065638, -0.44337, 0.47195, -0.32518, -0.020308, -0.4536, 0.35872, 0.41868, -0.24544, -0.35065, 0.47792, -0.034596, -0.48095, 0.095892, 0.06218, 0.19374, 0.24648, -0.083158, 0.05712, -0.2942, 0.048825, -0.43243, -0.47947, -0.014486, 0.2846, 0.34187, -0.48115, -0.24231, 0.48027, -0.30536, -0.44871, -0.44069, -0.34298, -0.12159, 0.44213, -0.057497, 0.34257, 0.051151, -0.43944, -0.43464, 0.43053, 0.20431, 0.13836, -0.2187, -0.24334, 0.048489, -0.21904, 0.13428, 0.061786, -0.22229, -0.19782, -0.21428, -0.18218, -0.21192, 0.045439, -0.3704, 0.047575, -0.27513, -0.13316, 0.026609, -0.28599, 0.1016, -0.3575, -0.17574, 0.43279, 0.37224, 0.14065, -0.20516, 0.045039, -0.31614, 0.23343, 0.28065, -0.20106, 0.25101, 0.035037, -0.087406, 0.42685, -0.066447, 0.48205, -0.26665, 0.33979, 0.43828, 0.084057, -0.48073, -0.053378, -0.36194, -0.088431, -0.40424, -0.26437, 0.082488, -0.46239, -0.17356, -0.41767, -0.30446, -0.097642, -0.49074, -0.19823, -0.036229, 0.063294, 0.42042, 0.49073, 0.42511, -0.048636, -0.24644, 0.16868, -0.17944, -0.25573, 0.45194, 0.38854, 0.053434, 0.45539, -0.033734, -0.24834, -0.21981, -0.0048876, -0.22164, -0.31969, 0.093754, -0.095486, 0.072431, 0.37678, -0.11263, -0.32676, 0.31353, 0.34525, -0.31664, -0.063688, -0.25756, -0.43437, 0.42361, 0.38984, 0.11558, 0.22312, 0.19822, -0.18876, 0.038048, -0.1159, -0.02848, 0.44006, -0.044955, -0.2003, -0.27899, 0.016221, 0.3378, -0.10735, 0.3813, 0.11281, -0.39661, 0.23408, -0.33461, 0.28814, 0.19305, -0.06004, -0.015695, 0.048477, 0.4604, 0.19796, -0.17563, 0.46752, 0.14155, -0.17475, 0.13154, 0.17501, -0.087388, -0.25195, 0.48885, 0.44471, 0.21033, -0.18939, 0.18885, -0.31502, -0.31509, 0.1745, -0.073179, 0.21894, -0.28479, -0.43291, 0.23392, -0.18101, -0.073507, -0.15658, 0.11999, -0.39685, 0.311, -0.25024, -0.26119, -0.22118, 0.022988, -0.11102, -0.0010419, 0.36009, 0.35335, 0.28991, -0.17296, 0.4967, 0.23521, 0.33621, 0.015033, 0.063677, 0.4366, -0.09037, -0.37639, -0.25845, -0.35284, -0.11901, 0.11928, -0.37867, 0.44828, 0.067513, -0.44382, -0.31261, -0.42552, -0.40457, 0.043159, 0.0096223, 0.10435, 0.08994, 0.38595, -0.22918, 0.48116, -0.33214, -0.20369, 0.16811, -0.24946, 0.24154, 0.46882, -0.081201, -0.052987, 0.4539, 0.14445, -0.3394, -0.10411, 0.44833, -0.071558, -0.39977, -0.4942, 0.18371, -0.20518, 0.054518, -0.037842, 0.031583, -0.49502, 0.21231, -0.2215, -0.37218, 0.11995, 0.36699, -0.17321, -0.046565, -0.22441, -0.26135, 0.12222, 0.097609, 0.43653, -0.17631, 0.042545, 0.26372, -0.17835, -0.022405, -0.13884, -0.46451, 0.33542, 0.40543, 0.21382, 0.4388, 0.2475, 0.038804, 0.13847, -0.18798, 0.12345, -0.28591, -0.49131, -0.38062, 0.018075, -0.27343, 0.17568, 0.061936, -0.47639, -0.024958, 0.17724, -0.45397, -0.13055, 0.30429, -0.23877, 0.20195, -0.30096, -0.27834, -0.24296, -0.40916, -0.075203, -0.24957, -0.11481, 0.20173, -0.45872, -0.01317, 0.12427, 0.041529, 0.18307, -0.095998, 0.25806, 0.16965, 0.13162, 0.30841, -0.42469, 0.12796, 0.23494, 0.35861, -0.0186, 0.25226, 0.34267, -0.30035, 0.11897, 0.4608, -0.47365, 0.38068, -0.42888, 0.28723, -0.007532, 0.1358, 0.20993, 0.3473, -0.39606, 0.075536, 0.30769, -0.072766, -0.32363, 0.16524, 0.20811, 0.37608, 0.24214, 0.18513, -0.070029, -0.44835, -0.40159, 0.35131, 0.29526, -0.24955, -0.4368, -0.42122, 0.18093, -0.35898, -0.34193, -0.22714, -0.31857, 0.42973, -0.1469, -0.39571, 0.32378, 0.16498, 0.091109, -0.44957, -0.33898, 0.27802, 0.41416, -0.4456, 0.12494, -0.084983, 0.2783, -0.14729, -0.056061, -0.0019465, 0.32185, 0.43056, 0.39055, 0.32486, -0.37357, 0.40034, 0.48248, -0.25158, 0.25012, 0.32957, 0.088909, -0.44243, -0.30571, 0.044884, -0.22723, 0.24078, 0.38183, 0.15137, 0.40999, -0.033786, -0.28853, 0.45573, 0.13906, -0.070578, 0.039081, 0.058494, -0.22356, -0.31063, -0.1634, 0.35935, 0.20706, -0.12906, 0.085623, 0.14733, 0.41239, -0.031944, 0.010272, -0.43905, -0.094552, 0.38295, 0.19703, 0.092424, -0.40461, -0.36703, -0.19092, -0.021258, 0.0040301, -0.033532, -0.46322, 0.37843, -0.38065, 0.47602, 0.43632, -0.061796, 0.084889, 0.45716, 0.17305, -0.43918, -0.32298, 0.27901, -0.082091, 0.42793, -0.43599, 0.264, 0.46357, -0.42543, -0.11113, 0.19103, 0.26518, 0.31063, 0.11548, 0.11939, -0.3255, 0.036575, 0.0094086, -0.21247, 0.28172, 0.35195, 0.30273, 0.19475, -0.31977, -0.079077, -0.15146, -0.45671, -0.39157, 0.40533, 0.46773, -0.27239, 0.20937, -0.36885, 0.16074, 0.49121, -0.31428, -0.29614, 0.29173, -0.021841, 0.41648, 0.035607, -0.46108, 0.47226, 0.078818, -0.42056, 0.41959, 0.25544, 0.29936, 0.022824, 0.2131, -0.32485, -0.2211, 0.35223, 0.10296, -0.14805, 0.35996, 0.31456, 0.33771, 0.29875, -0.062126, 0.3049, -0.080192, -0.20892, -0.077707, 0.30969, 0.17424, -0.34165, 0.093481, 0.49442, 0.069319, 0.33616, -0.49268, 0.28036, 0.11311, -0.27615, 0.39573, -0.007576, -0.25705, 0.36714, -0.12278, -0.10642, -0.22495, -0.2919, -0.10956, -0.11618, -0.41104, 0.35198, 0.42068, -0.46926, -0.40639, -0.40422, -0.39087, -0.25287, 0.22332, -0.040884, -0.1206, -0.049642, -0.28745, -0.47205, 0.31613, -0.49369, -0.16407, -0.3396, 0.013707, -0.42002, -0.065977, 0.040236, 0.33537, -0.43298, -0.26731, 0.049773, -0.398, -0.42188, -0.022561, 0.21597, 0.2889, -0.22066, -0.39704, -0.35715, 0.33765, -0.1639, -0.061925, -0.082546, -0.1416, 0.048192, 0.20958, 0.082706, 0.10149, 0.32139, -0.25127, -0.47042, -0.30107, 0.45888, -0.11442, 0.077986, -0.059653, -0.37723, 0.034832, 0.20252, -0.2454, 0.015394, 0.21583, 0.33984, 0.017787, 0.16316, -0.20427, -0.044127, -0.48498, -0.4787, -0.48874, -0.49379, -0.43718, 0.060401, 0.1548, -0.086022, 0.23751, -0.42945, 0.19665, 0.11789, 0.34141, -0.20569, 0.38909, 0.078629, 0.25278, -0.13748, -0.032618, 0.06613, 0.36023, 0.19613, 0.28937, -0.21597, 0.14779, 0.12152, -0.42075, 0.075024, -0.036614, -0.036476, 0.039244, -0.028932, -0.16312, -0.46131, -0.39055, 0.22623, 0.20619, -0.31423, 0.0032657, -0.31806, -0.11614, 0.35461, -0.3347, -0.19984, 0.097085, -0.076516, -0.41858, 0.49916, 0.39086, 0.22914, 0.36782, 0.12692, -0.20662, 0.20029, 0.09974, 0.43575, -0.47229, -0.24607, 0.065732, -0.36545, -0.028181, 0.25418, 0.19688, -0.12595, -0.24181, 0.43717, -0.33503, 0.25905, 0.00098401, -0.42965, 0.26569, 0.21767, -0.23463, 0.41235, 0.095456, 0.091628, -0.20988, 0.090756, -0.033324, 0.046525, -0.020825, -0.031546, 0.38975, -0.31399, 0.017755, 0.14115, 0.28329, 0.35629, 0.061259, 0.17654, -0.15725, -0.069972, -0.019408, -0.13235, -0.46266, 0.1841, 0.11582, -0.29582, -0.044102, -0.46412, 0.17718, 0.49552, 0.1963, 0.34555, -0.40807, -0.38405, -0.39534, 0.24517, 0.3359, -0.43519, -0.2403, -0.30965, 0.11004, 0.22233, 0.18499, -0.071698, -0.42805, -0.11674, 0.34174, -0.015684, 0.15083, 0.48971, 0.11904, 0.44351, 0.3573, 0.10654, 0.17808, -0.41186, -0.18008, -0.32109, -0.32646, 0.11232, -0.33346, 0.45857, -0.095152, -0.11014, -0.41195, 0.20235, 0.38474, 0.1405, 0.1808, -0.16892, -0.15802, 0.086543, -0.37419, -0.21875, -0.13186, -0.078094, 0.020796, 0.090276, -0.29352, 0.39823, 0.16238, -0.49281, -0.037759, 0.095976, -0.3007, 0.03971, -0.090656, 0.095599, 0.27954, -0.010056, 0.28628, -0.47062, -0.4868, -0.027654, 0.010567, -0.3868, 0.17245, -0.29258, 0.16498, 0.22315, 0.25586, -0.34122, 0.11945, -0.044982, 0.0079852, 0.049641, 0.35305, -0.2449, 0.18165, -0.17243, -0.47103, -0.10857, 0.18207, 0.10215, -0.03245, 0.23671, 0.3272, -0.13327, -0.45235, -0.15602, 0.011999, 0.18248, 0.25617, 0.25467, -0.39046, -0.40287, 0.47974, 0.10457, 0.23049, -0.06665, -0.10612, 0.4665, -0.18574, -0.45238, -0.11301, 0.49755, 0.085274, -0.15433, 0.29049, -0.1503, -0.21876, -0.30879, 0.40059, 0.097383, 0.27928, -0.44307, 0.3194, 0.24234, -0.15137, -0.43002, 0.441, -0.46075, 0.14979, -0.07974, -0.18474, -0.42327, 0.31078, 0.38077, 0.44804, 0.23371, 0.43344, -0.42616, -0.035261, -0.049801, -0.37579, -0.072197, -0.19744, -0.25571, 0.057943, 0.39569, 0.42019, -0.44993, 0.31548, -0.42066, 0.388, -0.21074, -0.4152, -0.3892, 0.39564, -0.20387, -0.048638, 0.13512, -0.012529, -0.43187, -0.20914, 0.42927, 0.33438, 0.48882, 0.42091, 0.43948, -0.12371, -0.31665, 0.21274, 0.42886, 0.36999, -0.051108, -0.083316, -0.04459, -0.49245, -0.20161, 0.058852, -0.26689, 0.33998, -0.30563, 0.039677, 0.058861, -0.42597, 0.069003, -0.25754, 0.17101, 0.25764, 0.2544, -0.47381, 0.12036, -0.039474, 0.095444, 0.21895, -0.030619, 0.16211, 0.12029, 0.16432, -0.24426, -0.29906, 0.30356, -0.29112, 0.26195, 0.47645, 0.076729, 0.27283, 0.27949, 0.30409, -0.36649, -0.17843, -0.07452, -0.4785, -0.38681, -0.00889, 0.34426, 0.026852, 0.051469, -0.25189, -0.39002, -0.38262, -0.30135, -0.41253, -0.37808, -0.38417, -0.14938, 0.11522, -0.47548, 0.42821, -0.38785, -0.39329, 0.3826, -0.39348, -0.002054, 0.27661, -0.19166, 0.46217, 0.40263, -0.011322, 0.32268, 0.46052, 0.35274, -0.36969, 0.4398, -0.30501, 0.17721, -0.24762, 0.06134, -0.088514, -0.065984, 0.43513, 0.43647, -0.047351, -0.29005, 0.12698, 0.24742, -0.11491, 0.21985, 0.04961, 0.10538, -0.44419, -0.09142, -0.13868, 0.49055, 0.44861, -0.0088951, 0.19417, -0.43026, -0.32644, -0.11334, -0.052471, -0.25895, 0.26902, -0.45101, -0.32707, -0.26938, 0.22776, -0.070681, 0.36469, 0.037007, -0.18732, -0.3796, 0.41176, 0.3754, 0.01265, 0.17921, -0.30548, -0.19469, 0.11478, -0.13693, -0.14868, 0.17461, -0.12324, 0.46761, 0.11626, 0.058287, -0.29352, -0.26333, -0.4999, 0.11949, 0.03477, -0.49926, 0.21067, 0.35678, -0.22021, 0.48243, 0.14477, 0.15468, -0.36091, -0.26259, -0.35949, 0.44896, 0.18459, 0.070865, -0.18086, -0.081938, -0.14146, -0.048433, -0.30966, 0.19626, -0.021042, -0.41917, 0.15951, -0.3565, -0.087344, 0.39727, -0.42004, -0.43045, 0.0010694, 0.43237, -0.0076598, -0.4092, 0.0023331, -0.25106, -0.027396, -0.096254, 0.059998, -0.21391, 0.47916, 0.19406, 0.32291, 0.017529, 0.39922, -0.36389, 0.35195, 0.30778, 0.21074, -0.36931, -0.074276, -0.19599, -0.056496, 0.44754, 0.4257, 0.11775, 0.3278, -0.08491, 0.0017931, 0.056592, 0.48908, -0.056889, 0.26159, -0.081536, 0.31129, 0.48534, 0.16129, -0.36964, 0.473, -0.023247, -0.2366, -0.40319, 0.41869, -0.095939, 0.23906, 0.23384, -0.15461, 0.49766, 0.0061675, 0.071553, 0.49404, 0.4884, 0.43585, 0.31569, 0.14436, -0.21548, -0.1904, -0.090032, -0.37946, 0.2317, 0.0091121, -0.42419, 0.23064, -0.059656, -0.49556, 0.47191, 0.056327, 0.26578, -0.15642, -0.48093, 0.17954, -0.21091, -0.26476, -0.44382, -0.33784, -0.26698, -0.47624, 0.31993, 0.12824, 0.36262, 0.4225, -0.21815, 0.2783, -0.48841, -0.32792, -0.004505, -0.39026, 0.038932, 0.34252, -0.33924, 0.37863, -0.27272, 0.27707, -0.34343, 0.37367, 0.3145, -0.056408, 0.43454, -0.42395, 0.3746, 0.4966, -0.40841, -0.2764, -0.48699, -0.45096, -0.090101, 0.26659, -0.4695, -0.16699, -0.34958, -0.0044837, -0.29274, -0.44205, 0.28457, -0.41706, -0.24811, 0.34969, -0.29706, -0.13574, -0.34117, -0.3382, -0.48009, 0.29062, 0.0555, 0.22541, 0.17355, -0.099496, -0.14675, -0.055267, 0.24144, -0.35192, -0.23794, -0.32495, 0.49077, 0.033691, 0.051679, 0.28926, 0.25092, 0.055437, 0.058588, 0.48681, -0.2151, -0.15432, -0.12969, 0.037988, 0.073803, 0.068153, 0.36, -0.10435, 0.4807, -0.46026, 0.27495, 0.38582, -0.16338, -0.31155, -0.30978, -0.25917, -0.18678, 0.43855, -0.11385, 0.037771, -0.13851, -0.2391, 0.37457, 0.19551, -0.2865, -0.17409, -0.35631, 0.27249, -0.14719, -0.14047, -0.15039, 0.037701, 0.29355, 0.18745, -0.40853, -0.19803, -0.38028, -0.23738, 0.055572, 0.046988, 0.47825, -0.16606, 0.17334, 0.19395, 0.10894, -0.21918, 0.43241, 0.23883, -0.27086, -0.46102, 0.010467, 0.30776, -0.28591, 0.46304, -0.014534, 0.33603, 0.48264, -0.44534, 0.29958, 0.27467, 0.090509, -0.086074, 0.33565, 0.029555, 0.088295, -0.17174, -0.012806, 0.43574, -0.45246, 0.44985, -0.24078, 0.41384, -0.36762, -0.075563, -0.47004, -0.39193, 0.2455, -0.21099, -0.28502, -0.1733, 0.29497, -0.071665, -0.021628, -0.4344, 0.31577, -0.10332, 0.29289, -0.39741, 0.073452, 0.34636, 0.24782, -0.10005, -0.24479, -0.34575, -0.42327, -0.21748, 0.23282, -0.010664, -0.21934, -0.41757, 0.30456, 0.4648, 0.28774, -0.3384, -0.47482, 0.30889, 0.41011, 0.23172, -0.44712, -0.37038, 0.27753, -0.38437, 0.34418, -0.49431, 0.25013, -0.28131, -0.033231, 0.031793, 0.1875, 0.23708, 0.051461, 0.060268, -0.13534, 0.44195, 0.049567, -0.49264, 0.48461, -0.034856, -0.2924, -0.37326, -0.31243, 0.26796, -0.003876, 0.26619, -0.10005, 0.024186, 0.3701, -0.30991, -0.26109, -0.10154, 0.15325, -0.39426, 0.4605, 0.38768, -0.068438, -0.39458, 0.097766, 0.062466, 0.37914, 0.21653, -0.25704, 0.21369, 0.25525, 0.37917, -0.21451, -0.16142, -0.085895, -0.16172, 0.30862, -0.096957, 0.32324, 0.273, 0.064072, -0.035487, -0.21728, 0.44464, 0.034247, -0.26638, 0.011048, 0.14941, -0.22945, 0.24439, -0.097632, 0.33945, 0.34061, -0.39035, 0.22093, 0.059067, 0.44419, -0.34271, 0.26415, -0.23058, -0.10141, -0.054431, 0.18492, -0.28507, -0.031552, -0.33167, -0.4229, -0.34023, -0.22489, -0.04962, 0.14441, 0.42895, -0.029502, 0.33297, -0.21646, -0.41461, -0.20919, 0.40881, -0.36976, 0.48182, 0.41995, 0.40581, 0.25662, -0.46276, -0.020899, 0.22724, -0.17446, 0.22962, 0.025761, 0.47869, -0.23078, -0.3355, -0.23949, 0.063764, 0.10683, 0.14398, -0.37574, 0.1454, 0.43287, -0.29793, 0.38817, 0.23052, 0.26478, -0.17184, 0.23027, -0.23669, 0.24085, 0.17061, 0.28523, 0.34868, 0.26831, 0.40416, 0.14375, 0.47041, -0.062656, 0.27945, -0.18393, 0.045902, -0.34461, -0.38737, -0.01857, -0.22845, 0.17719, 0.1622, -0.29996, -0.030093, 0.26862, -0.15541, 0.30024, -0.32579, -0.13783, -0.21968, -0.27595, -0.29246, 0.17249, 0.47108, -0.20243, 0.18517, 0.4677, 0.34605, -0.035112, -0.30305, 0.36569, 0.18111, -0.47022, 0.27136, 0.36608, -0.49573, -0.27208, 0.07696, -0.1846, 0.057829, 0.22717, -0.19199, 0.075427, 0.18364, -0.26936, 0.38359, 0.26778, -0.47737, -0.13798, 0.23352, -0.36773, -0.28487, -0.30107, 0.18838, 0.16526, -0.40665, 0.11926, 0.064418, -0.23302, 0.090149, -0.071149, -0.3348, -0.24093, 0.20058, -0.35354, 0.22856, -0.21278, -0.17403, -0.47762, -0.017393, 0.37464, 0.36889, 0.439, 0.28245, -0.034321, 0.21923, -0.33921, -0.31149, 0.09594, 0.43393, -0.22414, 0.073748, 0.35839, 0.24258, -0.11943, -0.13645, 0.15634, 0.19715, -0.43251, 0.38468, -0.25983, -0.26353, -0.10354, 0.16694, 0.29649, -0.13548, 0.07494, -0.052421, -0.13583, -0.49804, -0.27963, 0.29376, 0.029657, 0.47901, -0.16899, -0.00072299, -0.29832, -0.47647, 0.076215, -0.43859, 0.26455, -0.36707, 0.49612, -0.040179, 0.061076, -0.4667, 0.25933, 0.44901, 0.49471, -0.24448, -0.44405, 0.31028, -0.49817, -0.079142, 0.42891, -0.35058, 0.36405, 0.31282, -0.47435, 0.33589, -0.4496, -0.26705, -0.37783, -0.18698, 0.014999, -0.13155, 0.15226, -0.12409, 0.24344, -0.32416, -0.30618, -0.29978, -0.25623, 0.16748, 0.29087, 0.34854, 0.18176, -0.47609, -0.39623, -0.35504, 0.47313, 0.11353, -0.19714, 0.018033, 0.44776, -0.29754, 0.14755, 0.10143, 0.032923, 0.40045, 0.38022, 0.12095, 0.051257, -0.35084, -0.097922, -0.11528, 0.27748, 0.3282, -0.12335, -0.054225, 0.26043, -0.34035, -0.23682, -0.2859, 0.33783, -0.21212, 0.099406, 0.48621, -0.0096383, -0.24477, -0.14106, 0.41463, 0.090166, 0.17296, 0.18646, 0.075573, 0.010153, -0.23541, 0.019533, -0.40811, 0.47374, 0.45083, 0.35801, -0.35801, 0.046185, -0.37415, 0.38477, -0.14693, 0.47274, -0.44366, 0.39173, -0.18933, 0.22687, 0.2647, -0.317, -0.14976, -0.25193, 0.13111, 0.31192, 0.1699, -0.43503, 0.40723, 0.31916, -0.19041, 0.26861, -0.41183, 0.48259, -0.082898, -0.17835, 0.34561, 0.43872, 0.26742, -0.2276, -0.10025, 0.46302, -0.22945, 0.45911, 0.20121, 0.20581, -0.27562, -0.19241, -0.31604, 0.13159, 0.43662, 0.43505, 0.48121, -0.44356, 0.47913, -0.43925, -0.27461, -0.41654, -0.47861, -0.12826, 0.3257, -0.16968, 0.14991, -0.30033, 0.35035, -0.45623, 0.12527, 0.21283, -0.039318, -0.10616, 0.36672, 0.37999, -0.070262, -0.33963, 0.31637, 0.4161, 0.21378, -0.48783, -0.25477, -0.021722, 0.20343, 0.30151, 0.41719, -0.2115, 0.22461, -0.2622, 0.23804, -0.093828, 0.32994, -0.44686, -0.084373, -0.37875, 0.0075374, -0.17196, 0.30994, 0.24205, 0.15707, -0.13402, -0.4443, -0.4893, 0.4425, 0.44926, 0.073886, 0.012875, -0.17979, -0.48748, 0.16517, -0.27186, -0.17763, -0.32372, 0.11262, 0.33618, 0.48458, -0.10508, 0.19149, 0.18761, -0.49043, 0.35976, 0.14758, 0.23522, 0.43444, -0.31235, -0.1452, 0.1583, -0.40581, -0.33099, -0.39942, -0.45049, -0.1175, -0.1146, 0.29001, 0.14514, -0.36926, 0.18076, -0.46937, -0.48147, -0.46938, -0.35886, 0.45613, 0.061187, 0.15622, -0.42998, -0.15006, 0.087735, -0.11222, 0.062931, -0.28229, -0.15463, 0.48027, -0.25118, 0.061412, -0.33941, -0.48852, 0.3833, 0.31503, 0.050364, -0.15559, 0.44232, 0.28101, -0.35381, -0.4243, -0.049357, 0.34425, 0.3975, 0.24238, 0.036003, 0.10201, -0.47047, 0.19784, 0.15454, -0.094443, 0.3792, -0.48852, -0.36214, -0.047624, 0.14609, -0.18154, -0.29526, -0.21517, -0.0032339, 0.11236, -0.46326, -0.16385, -0.41259, 0.20462, 0.47977, -0.089399, -0.10799, -0.3104, 0.36609, 0.47332, -0.42079, -0.03941, 0.28436, -0.16794, -0.01024, 0.19221, -0.049538, -0.42176, 0.38012, 0.33529, -0.29713, -0.11766, 0.2923, -0.26972, 0.35547, 0.29988, 0.34182, 0.27783, 0.1862, -0.40838, -0.25058, -0.17698, -0.4048, -0.18866, 0.37353, -0.29542, 0.17797, 0.064295, 0.088937, 0.16577, 0.48438, -0.21143, 0.26332, 0.4563, -0.33256, -0.34385, -0.32151, -0.46059, -0.12024, 0.40626, 0.32446, 0.12462, 0.042076, -0.16328, 0.21624, -0.31851, -0.2758, -0.011791, 0.21878, 0.48752, 0.42232, 0.20871, 0.063509, -0.13509, 0.25325, -0.3989, -0.22632, 0.33532, 0.14225, -0.35485, -0.35414, 0.42162, -0.36692, 0.1691, 0.3035, 0.49746, 0.38553, 0.104, 0.032273, -0.056878, 0.295, -0.37827, -0.086385, -0.27465, 0.41731, 0.46914, -0.38033, 0.41666, -0.28749, -0.10951, 0.38484, -0.26219, 0.20246, -0.3536, -0.15984, 0.38159, -0.038559, -0.44787, -0.13808, -0.15302, 0.30791, -0.16503, 0.031539, -0.31034, -0.32971, -0.21617, 0.22388, 0.095625, -0.37658, -0.1608, 0.37332, 0.16619, -0.041449, 0.27172, 0.14346, -0.35243, -0.10704, 0.06529, -0.13778, 0.36311, 0.40327, -0.26708, -0.46222, 0.47075, -0.37732, -0.49327, 0.27373, -0.16585, 0.34385, -0.13026, 0.39532, -0.42656, -0.12459, -0.28319, 0.47878, -0.01962, 0.19048, 0.47989, -0.27336, 0.40817, 0.47091, -0.25372, 0.31632, -0.26058, -0.28923, -0.19008, -0.41669, -0.33095, 0.23153, -0.48835, -0.25712, 0.435, 0.45573, -0.38355, 0.34492, -0.28453, -0.058029, -0.11743, 0.18037, -0.24049, -0.45201, 0.20121, 0.27969, 0.24161, 0.34777, -0.31756, 0.13801, -0.36885, 0.37993, 0.43954, 0.42403, 0.41761, -0.080006, 0.096889, -0.48983, 0.46157, -0.17317, 0.12231, 0.29862, -0.027035, -0.037471, -0.30873, -0.096593, 0.0133, -0.46713, 0.44837, 0.18476, 0.43543, -0.14726, 0.37994, -0.22198, -0.41273, -0.23825, -0.020342, 0.074059, -0.015722, -0.16842, -0.0023621, -0.20242, -0.31481, -0.21821, 0.1702, -0.15265, -0.013079, -0.2496, 0.35329, -0.22313, -0.37315, 0.31228, -0.26184, 0.031261, -0.47383, 0.059226, -0.28168, -0.48751, -0.30196, 0.16027, -0.0050889, 0.47846, -0.25743, 0.056978, -0.2866, -0.19503, -0.10162, -0.15767, -0.22978, 0.13102, 0.16962, 0.17275, 0.40908, 0.20674, -0.37898, -0.34567, -0.44739, -0.16691, 0.089824, 0.38944, -0.44691, 0.13321, 0.44101, 0.48625, 0.15752, 0.31675, -0.030866, 0.4986, -0.12276, -0.32568, -0.12394, 0.18222, -0.46477, -0.2897, 0.20179, -0.30792, -0.087607, 0.2325, 0.072558, 0.37084, 0.28475, 0.26977, -0.40216, -0.4932, -0.21206, 0.089815, -0.030196, -0.080664, -0.29847, 0.0011501, 0.27597, 0.43968, -0.035197, -0.10803, 0.1293, 0.38327, 0.16575, -0.1317, -0.10549, 0.055109, -0.38816, 0.39655, 0.39856, -0.49263, 0.41206, -0.22265, -0.42159, 0.27968, -0.41749, -0.33482, -0.20169, -0.49005, 0.46915, -0.19133, 0.43549, -0.22556, 0.11444, 0.015002, -0.38134, 0.22986, 0.2354, -0.39377, 0.0071194, 0.32714, 0.39604, -0.22537, 0.48141, 0.41592, -0.34931, 0.1552, -0.36709, -0.058648, -0.18189, 0.43794, -0.48395, 0.14232, 0.39072, -0.41415, -0.24128, 0.15029, -0.48409, -0.32694, 0.3805, -0.3917, 0.10081, -0.058156, 0.38694, -0.095417, 0.19158, -0.10203, -0.22855, 0.35393, -0.29349, -0.42911, 0.4918, 0.0043617, 0.49836, 0.35834, 0.49772, -0.23891, 0.029894, 0.29767, 0.3495, -0.33555, -0.27946, -0.12666, -0.25197, 0.062316, -0.1215, 0.38653, 0.16956, 0.33781, 0.46639, -0.41827, -0.37586, 0.36222, 0.22526, 0.27155, 0.22145, -0.46082, -0.47244, 0.28006, 0.41892, 0.25275, -0.31916, -0.28807, 0.25307, 0.21759, -0.012443, -0.35681, 0.42758, 0.23459, 0.48108, -0.10793, -0.26302, -0.35325, 0.071635, 0.36345, -0.45307, 0.21599, -0.24834, -0.38992, 0.21228, -0.39854, -0.26169, -0.22164, -0.10199, 0.24461, 0.33627, 0.13254, -0.4557, -0.060432, 0.47837, -0.22226, 0.37339, 0.14661, 0.42834, -0.15529, 0.2812, 0.13905, -0.19127, -0.0066266, 0.22938, 0.033743, 0.050816, -0.01683, -0.22669, 0.41249, 0.089919, -0.14372, -0.017216, 0.3073, 0.48946, 0.18115, -0.21659, -0.17443, 0.038339, -0.39833, 0.15257, -0.048936, -0.36582, 0.4303, 0.31266, 0.49109, 0.40274, 0.49143, 0.37749, 0.056843, 0.20869, 0.28125, 0.1186, 0.38054, 0.27101, 0.18644, -0.33226, 0.12802, -0.046623, -0.052492, 0.23337, 0.30922, 0.057588, 0.066646, -0.2227, -0.014663, 0.084883, -0.21302, 0.31499, 0.15971, -0.12535, 0.31776, -0.24508, -0.15695, -0.13657, -0.20675, 0.2967, -0.34829, 0.29672, 0.062098, 0.39398, -0.07303, -0.29681, 0.10427, -0.24214, 0.11141, 0.04085, 0.18004, 0.17337, 0.16798, 0.014105, 0.084918, 0.44832, -0.2744, 0.17901, -0.4115, -0.40344, -0.4905, 0.15455, 0.33625, 0.33938, 0.4155, -0.030889, -0.12892, 0.21019, 0.10843, 0.39358, 0.065697, -0.48612, -0.22601, -0.27029, -0.37074, 0.14606, 0.49739, -0.016084, -0.12431, 0.26, 0.2417, -0.12725, 0.34993, 0.35424, 0.027622, 0.22596, 0.46208, 0.37199, 0.40254, -0.36661, 0.095867, -0.36813, -0.42317, -0.40896, 0.073644, 0.074075, 0.087098, 0.2509, 0.21194, 0.32858, -0.37205, 0.24771, -0.32025, 0.34525, -0.086547, -0.011081, -0.30442, 0.017869, -0.095331, 0.31959, 0.26663, 0.034168, -0.12223, 0.19854, 0.28213, -0.091588, -0.29997, 0.12503, -0.35787, 0.069918, -0.11626, -0.076856, 0.22712, 0.23883, -0.42086, -0.3194, -0.30299, 0.1064, 0.08075, 0.16142, -0.038546, -0.28427, -0.26034, 0.30271, 0.31192, 0.39066, 0.096925, -0.11718, 0.10725, 0.090471, 0.28299, 0.34278, -0.3618, -0.26492, 0.41374, 0.30066, 0.2802, 0.48668, 0.34763, -0.41878, 0.098789, -0.22038, 0.003983, -0.47892, 0.053344, 0.48718, 0.47913, -0.0010325, -0.0025517, 0.26622, 0.46366, 0.33424, -0.4448, 0.17338, -0.046196, -0.22237, -0.15149, 0.40196, 0.15589, 0.33248, -0.13467, 0.023645, 0.44897, -0.26088, 0.30858, -0.48378, 0.42318, -0.14046, -0.40629, 0.00039905, 0.22926, 0.15308, 0.078353, 0.36093, 0.18463, -0.15882, 0.32438, -0.34384, -0.2116, 0.33397, 0.32205, 0.060148, -0.24689, -0.0051749, 0.0042402, 0.36836, -0.40297, -0.38788, -0.20535, -0.47402, 0.21613, 8.8617e-05, 0.10823, -0.32181, -0.43222, 0.10148, 0.057615, 0.081036, 0.10431, -0.20614, 0.057268, 0.11355, 0.13918, -0.059681, -0.20089, -0.35302, -0.23174, -0.31404, 0.3475, 0.11021, 0.43631, 0.15717, -0.28585, -0.31058, 0.0065822, 0.032014, -0.35132, -0.24805, -0.0073596, 0.39518, -0.47801, 0.39478, -0.41627, 0.043002, -0.11301, -0.36593, -0.46934, -0.05189, 0.057264, -0.17671, -0.45499, 0.042326, 0.31146, -0.285, 0.49376, 0.017847, 0.18813, -0.19698, -0.26941, -0.23908, -0.049564, 0.38375, 0.29297, 0.28582, 0.3616, -0.32207, -0.09132, -0.39748, 0.015717, -0.30808, 0.089651, 0.48057, 0.17252, 0.044945, 0.15698, -0.23716, -0.49279, -0.20376, -0.38669, 0.010238, -0.14066, 0.37859, -0.16558, 0.39051, -0.04617, -0.10974, 0.40078, -0.074597, 0.40333, -0.31496, 0.35426, -0.42497, -0.3312, -0.23296, 0.4174, 0.23227, -0.22791, -0.4761, 0.13219, -0.2282, 0.077323, -0.091392, -0.18537, -0.29667, -0.12808, 0.36473, -0.42926, -0.094587, -0.45524, 0.23399, 0.032401, 0.16316, 0.33539, -0.28836, 0.22505, 0.078721, -0.15617, -0.20071, -0.19204, 0.1201, -0.061683, -0.44284, 0.011348, 0.26093, -0.28896, -0.076638, -0.23117, 0.13096, 0.24778, -0.32297, -0.35759, -0.47442, -0.24086, -0.2552, -0.16163, 0.26235, -0.25228, 0.48969, -0.45137, 0.3726, -0.433, -0.22564, -0.017658, -0.2851, -0.38328, 0.089923, -0.23686, 0.37972, 0.46987, -0.25844, -0.26448, 0.30711, 0.35397, -0.11264, 0.32518, 0.086429, 0.47062, 0.13905, -0.2396, -0.18206, -0.40318, 0.21583, 0.41665, -0.011666, 0.045254, -0.21527, -0.27733, -0.25515, 0.38665, -0.49066, 0.34766, -0.02497, 0.062328, 0.31077, -0.094653, 0.27955, 0.21702, -0.36563, 0.21901, -0.39605, -0.022573, -0.2638, 0.28533, 0.34297, 0.13011, 0.11091, 0.043726, -0.075515, -0.055759, -0.46159, 0.15934, 0.33573, 0.43814, 0.33097, -0.45138, 0.16607, 0.42233, -0.30141, -0.40519, 0.045138, 0.085319, 0.39994, 0.30434, 0.063784, 0.24519, -0.22233, -0.10231, -0.3581, -0.47286, 0.098985, 0.13452, 0.0559, -0.25537, -0.39219, 0.43064, -0.2488, -0.4545, 0.35144, 0.48945, 0.16315, 0.30719, -0.31258, -0.11682, -0.30966, -0.085437, -0.19551, 0.033862, 0.37669, -0.42148, -0.035268, -0.13043, 0.17163, 0.38801, 0.079737, -0.27159, 0.22871, 0.36037, 0.11478, 0.42271, -0.060347, -0.16503, -0.19791, 0.083101, 0.4723, 0.33516, -0.14097, -0.35176, 0.089265, -0.27982, -0.38337, 0.48098, -0.27952, 0.2168, -0.33579, 0.1802, 0.33579, 0.24641, -0.15345, -0.36511, -0.06932, -0.49538, 0.21926, -0.20109, -0.0041016, -0.26952, 0.30872, -0.30964, 0.1289, 0.40792, 0.30877, 0.013263, 0.19262, -0.018716, 0.088367, -0.238, 0.47959, -0.0098047, 0.23008, -0.25054, -0.26831, 0.32677, -0.077158, -0.22553, -0.11295, -0.01553, -0.15174, -0.22511, -0.33705, -0.067893, 0.33884, 0.046511, 0.32137, 0.092287, 0.15539, -0.4996, -0.095658, 0.34213, -0.048931, 0.39248, 0.4549, 0.064606, 0.042595, 0.035619, -0.059826, -0.29882, 0.070292, -0.49939, 0.41633, -0.24347, 0.023311, 0.25458, 0.38096, -0.36704, 0.13635, 0.024986, 0.16983, -0.35253, -0.36029, 0.4098, 0.12202, 0.46625, -0.27849, 0.35824, -0.25076, 0.36917, 0.11473, 0.3698, -0.39766, 0.22115, -0.31461, 0.053076, -0.24902, -0.0014992, 0.19054, -0.1469, 0.48055, 0.42001, -0.46393, 0.083406, 0.049053, -0.14661, -0.49897, -0.47176, 0.31329, 0.3778, -0.16046, -0.25712, 0.1636, -0.33328, -0.097906, -0.18934, -0.24254, 0.14142, 0.014158, -0.27375, -0.18008, 0.42875, -0.13235, 0.23474, -0.11896, 0.4586, -0.24141, -0.12838, 0.10622, -0.094369, 0.29738, 0.44116, 0.30272, 0.26786, 0.028699, -0.24815, 0.49203, 0.035457, 0.37243, -0.4552, -0.14898, 0.18334, 0.45296, -0.27266, 0.28567, 0.47347, -0.0065415, 0.20376, -0.17591, -0.078786, 0.4528, 0.24367, 0.38189, -0.17589, -0.28503, 0.14554, -0.41387, -0.014428, 0.30368, -0.18987, -0.0076033, -0.19604, 0.32221, 0.28436, -0.30459, -0.20102, -0.045308, -0.0041736, 0.47272, 0.051432, 0.1095, 0.40292, 0.34552, -0.32467, -0.21654, 0.027965, 0.26649, 0.36191, -0.34729, 0.23665, 0.35872, 0.036024, 0.42164, 0.11547, -0.2511, -0.12088, 0.29378, -0.44406, -0.17715, 0.36455, -0.46239, 0.078951, -0.26418, 0.44477, -0.25902, -0.39603, 0.30015, -0.13069, -0.24968, 0.057575, -0.0062996, 0.38992, -0.33869, -0.22434, 0.42369, -0.32815, -0.279, 0.2243, 0.45501, 0.20431, 0.059308, 0.36191, 0.0046798, 0.26576, -0.28201, 0.10366, 0.33925, -0.13555, -0.041456, -0.38303, -0.29688, 0.38414, -0.31601, -0.47299, -0.32553, -0.17026, -0.26178, 0.49863, -0.20588, 0.020165, 0.30616, -0.30913, -0.15331, 0.13233, 0.16046, 0.14081, -0.34402, -0.21613, 0.42572, -0.21602, 0.3339, 0.20845, 0.23781, 0.24738, -0.19983, -0.42608, -0.0075193, 0.28627, -0.4075, -0.24051, -0.021046, 0.0016372, -0.17306, -0.31294, -0.46305, -0.45933, 0.23288, -0.43033, 0.48833, 0.064139, 0.17487, -0.2865, 0.27293, -0.17363, 0.15059, 0.13642, 0.080903, 0.19071, 0.48798, 0.39011, -0.063581, 0.45761, 0.4412, 0.36302, -0.11769, -0.47564, 0.38404, -0.15095, -0.30236, -0.17785, 0.028823, 0.24245, -0.094343, 0.12995, 0.39487, 0.22528, -0.05035, 0.33374, 0.25239, 0.44175, -0.42995, -0.31783, -0.15749, -0.38403, -0.34902, -0.040043, -0.17026, 0.48988, 0.008482, -0.19937, 0.025712, -0.31587, -0.30758, -0.2984, 0.073561, -0.45831, -0.15124, 0.49298, -0.037262, 0.12418, -0.21462, -0.033457, 0.31384, -0.18389, -0.45791, -0.33951, -0.14696, 0.12207, 0.067463, -0.081553, -0.22015, -0.16489, 0.14441, -0.0768, 0.032664, 0.32881, -0.20295, -0.44639, -0.094971, -0.28723, -0.33396, -0.0014195, -0.13599, -0.26762, 0.39181, -0.4077, -0.47135, 0.36433, -0.47801, 0.31546, 0.42687, 0.18195, -0.083191, 0.3806, 0.44734, -0.31553, -0.24784, 0.41508, 0.098285, 0.44963, 0.29892, -0.22755, 0.072097, 0.49818, -0.22629, 0.42242, -0.29801, 0.37187, -0.072335, 0.11502, 0.21035, -0.065345, 0.20593, -0.14676, -0.08633, -0.3155, 0.20719, -0.19284, -0.46709, -0.3545, 0.23236, -0.2547, 0.081687, -0.35872, -0.18135, -0.44485, -0.40165, 0.057544, -0.29382, 0.26224, -0.35534, -0.46144, -0.19305, -0.19574, -0.19598, 0.18083, 0.42975, -0.0041017, -0.06719, 0.42444, -0.44493, 0.26312, -0.0094513, -0.31294, 0.3287, 0.078696, 0.16, 0.42404, 0.15757, -0.43589, 0.21387, -0.18605, 0.34138, -0.14432, -0.34334, 0.41184, 0.24678, 0.21867, -0.062377, 0.04611, -0.13277, 0.45701, 0.17727, 0.38291, 0.49276, -0.061005, -0.0051682, 0.22959, -0.42316, 0.3379, 0.047458, 0.085032, -0.038398, -0.15263, 0.4332, -0.35421, -0.43343, 0.15904, 0.49841, 0.37308, -0.07649, 0.4231, 0.48505, 0.15273, 0.062394, 0.28517, 0.32744, -0.010192, 0.20876, 0.099714, 0.044418, 0.32901, -0.317, -0.29289, -0.084993, -0.29991, -0.088466, -0.27461, 0.43915, -0.48344, -0.20858, -0.25412, 0.02547, -0.44966, -0.34375, 0.44526, 0.39598, 0.13781, 0.41869, 0.28569, 0.11654, 0.41176, 0.18787, -0.059329, 0.0061182, 0.17331, -0.47826, -0.44814, 0.16288, -0.33273, -0.16225, -0.4681, 0.23715, -0.39782, -0.29368, 0.37047, -0.28238, -0.20076, -0.40949, -0.18351, -0.41252, -0.20381, -0.034336, -0.11348, -0.36919, 0.414, -0.29927, 0.4588, -0.14398, 0.40711, -0.28553, 0.24852, -0.30644, -0.39462, 0.098664, 0.29675, 0.0057633, -0.15853, -0.33968, 0.40338, -0.2971, -0.060461, 0.46519, -0.30403, -0.23675, 0.059686, 0.0056765, -0.41729, 0.10083, -0.33143, 0.24223, 0.01597, -0.42148, -0.43751, -0.1097, 0.26078, 0.26051, -0.18668, 0.38379, 0.18252, 0.17536, -0.29853, -0.18634, 0.048438, -0.49645, -0.48058, -0.46492, 0.19479, 0.21065, -0.25945, 0.036422, -0.32053, -0.3146, -0.47083, -0.36866, 0.051769, 0.077961, 0.28659, -0.25729, 0.38221, -0.070425, -0.30211, 0.2824, -0.4185, 0.22782, 0.45089, 0.42794, -0.12295, 0.10696, -0.13869, -0.30916, -0.28203, -0.11816, 0.057825, 0.25983, 0.27083, 0.31072, -0.07963, -0.43738, 0.24259, 0.36135, 0.20355, 0.49988, 0.26453, 0.42451, 0.45209, 0.30856, 0.13684, -0.498, 0.31967, -0.3231, -0.26876, -0.092187, -0.096116, 0.28168, 0.36742, -0.19526, -0.22897, 0.45692, 0.39484, -0.0057833, -0.10236, 0.33696, -0.18998, 0.36342, 0.16992, 0.40885, 0.41246, 0.014405, 0.08633, -0.14413, 0.15221, -0.16997, -0.32262, 0.17076, -0.15286, -0.48031, -0.27001, -0.098244, 0.4315, -0.19157, -0.41277, 0.12917, 0.078965, 0.44892, -0.37692, 0.30836, -0.042028, 0.30766, -0.22117, 0.22525, -0.21967, -0.27849, 0.016079, -0.30217, -0.42839, 0.13199, 0.24194, 0.37907, -0.20406, 0.30014, 0.09583, 0.17009, -0.46802, -0.33776, 0.42955, 0.24083, -0.19113, -0.18597, 0.20695, 0.37688, 0.061099, -0.45016, -0.43652, 0.38759, -0.36199, -0.41635, -0.25406, 0.2459, 0.49613, 0.43598, -0.044768, 0.31434, -0.38764, -0.41342, 0.20048, 0.17255, -0.19737, -0.18652, 0.19795, 0.059721, 0.31082, -0.095757, -0.39743, -0.24443, 0.49776, 0.41605, 0.22978, -0.054371, -0.42792, -0.1925, 0.48474, 0.14363, 0.31926, -0.37763, 0.086331, -0.017172, 0.15878, -0.35205, -0.11507, 0.31896, 0.13118, -0.29311, -0.28228, -0.013909, 0.13071, -0.48122, 0.063295, 0.1157, -0.08608, 0.036768, 0.12961, -0.41572, -0.24211, 0.15576, -0.036443, -0.39536, 0.015215, -0.058621, -0.46402, -0.44524, 0.44312, 0.3825, -0.27396, 0.36249, -0.26715, 0.061486, 0.38438, -0.26564, -0.27705, -0.23489, -0.49473, 0.23352, -0.19301, 0.29525, 0.097737, -0.21444, 0.18795, 0.45027, 0.26377, 0.44483, 0.055741, 0.2675, 0.29157, 0.40441, -0.30447, 0.09599, 0.48371, 0.29533, 0.052757, 0.29727, -0.025934, -0.46209, 0.12852, -0.1887, 0.36905, 0.14816, 0.13488, -0.31741, 0.2958, 0.35114, 0.22163, 0.099521, -0.22652, 0.038132, -0.29973, 0.19402, -0.2306, 0.21564, -0.48689, 0.039423, 0.12184, 0.35519, 0.41081, -0.058993, -0.45452, -0.093712, -0.28073, 0.27013, 0.14655, -0.39724, 0.026716, 0.35406, 0.38746, 0.42823, -0.31942, -0.41333, 0.19043, -0.34422, 0.15966, 0.31997, 0.2198, 0.44983, -0.26868, 0.14686, -0.25956, 0.13986, -0.43197, 0.37745, 0.062061, -0.4386, 0.035786, 0.10025, 0.34279, 0.044508, 0.19289, -0.28689, -0.28614, 0.35061, 0.05049, 0.2316, -0.041071, -0.33991, -0.23305, -0.055973, 0.43668, -0.27834, -0.37239, -0.46674, -0.1636, 0.061546, 0.070582, -0.37167, -0.03058, -0.035154, 0.3792, 0.21856, -0.12674, -0.35187, -0.093585, -0.39895, 0.027304, -0.2078, 0.076857, 0.37537, -0.0088424, -0.29982, -0.19075, 0.30099, -0.21296, -0.023911, 0.43276, 0.30751, 0.071009, 0.2045, 0.44083, -0.41367, 0.020848, -0.22278, -0.027627, 0.15168, 0.20959, -0.0018332, -0.34599, -0.21375, -0.32839, -0.29173, -0.33218, 0.3524, 0.47508, -0.44534, -0.4511, -0.43939, -0.054308, 0.14747, -0.31754, 0.19815, 0.009918, -0.049815, 0.28688, 0.46223, 0.27289, 0.095655, -0.19732, 0.31972, 0.29449, 0.25487, -0.1343, 0.044159, 0.27868, 0.063483, -0.054437, 0.22386, 0.08955, 0.47565, -0.0080022, -0.25811, 0.37021, -0.069285, -0.2062, -0.099536, 0.22351, -0.42235, 0.17315, -0.088094, 0.36161, -0.44193, 0.067205, -0.3061, -0.11046, 0.087872, -0.13651, 0.49852, -0.31471, -0.082368, 0.035381, 0.3202, -0.15885, 0.30064, -0.43396, -0.2125, -0.23839, -0.037916, 0.30934, -0.31574, -0.16387, 0.20207, 0.31387, 0.29231, -0.061919, -0.46161, -0.14833, 0.054882, 0.043482, 0.19309, 0.10284, 0.25381, -0.46951, -0.44442, -0.15006, 0.29531, 0.37788, 0.17876, -0.13611, -0.41607, -0.34922, 0.03454, 0.10522, -0.31245, -0.062061, 0.23624, 0.42525, 0.46537, -0.24026, 0.31064, -0.4018, -0.027326, -0.31962, -0.41391, 0.16437, -0.40748, 0.0021684, 0.054911, 0.3247, -0.30655, -0.045637, 0.18595, 0.025865, 0.28046, -0.33576, 0.25065, 0.42131, -0.49439, 0.47554, 0.25164, -0.38181, -0.14635, 0.16189, 0.078174, 0.22309, 0.039679, 0.26173, 0.2812, -0.49513, 0.19828, -0.013575, -0.22737, 0.10318, -0.32901, -0.18031, 0.37781, -0.14784, 0.14588, 0.21906, -0.2102, 0.20537, 0.40234, 0.25024, -0.034589, -0.10143, -0.021007, -0.392, -0.48223, -0.34542, 0.43848, -0.12661, 0.098149, -0.46697, 0.015104, -0.4985, -0.056897, 0.40317, 0.30516, 0.18155, 0.32163, 0.35963, -0.053113, 0.11937, -0.17302, -0.33945, -0.49227, -0.00041926, -0.19037, -0.44797, 0.35484, 0.30683, -0.45639, 0.22633, 0.18858, 0.19888, -0.49803, 0.25016, -0.23505, 0.47927, -0.12368, 0.29219, -0.21459, 0.026389, 0.2608, 0.26387, 0.29656, -0.32257, 0.29186, 0.31936, 0.15857, 0.32873, -0.018554, -0.17248, 0.40538, 0.15997, -0.21605, -0.17584, 0.39343, -0.23516, 0.085828, 0.37923, 0.4682, 0.16962, 1.2398e-05, 0.24141, 0.36562, -0.2689, -0.085346, -0.20475, -0.41734, -0.24768, -0.40546, -0.20065, 0.27212, -0.46833, -0.49106, -0.28642, -0.10282, -0.48474, 0.32406, -0.035303, 0.17069, -0.01648, 0.19802, 0.24511, -0.2421, -0.36391, 0.35906, -0.25804, 0.20369, -0.46328, 0.44249, -0.029759, 0.32838, 0.012889, -0.37424, 0.13152, 0.18755, -0.2821, 0.034933, -0.094179, -0.3111, -0.080142, -0.046324, -0.37403, -0.38782, 0.19429, -0.40056, 0.17241, -0.044357, -0.03195, 0.39494, -0.3018, 0.18431, 0.0098984, 0.090901, 0.25338, -0.38659, -0.26906, 0.23447, -0.14974, -0.47515, -0.18507, -0.26874, -0.35914, -0.13947, 0.15016, -0.14778, 0.42861, -0.39318, 0.23269, 0.41558, 0.025471, 0.16508, 0.33083, -0.31468, 0.20153, 0.35562, -0.36237, 0.1201, 0.39639, -0.42711, 0.076496, 0.44742, 0.45788, 0.23403, -0.28098, 0.40917, 0.24015, 0.19629, -0.42939, -0.41732, -0.14012, -0.26301, -0.14922, 0.29397, 0.36203, 0.089832, 0.11519, -0.43854, 0.258, 0.020465, 0.33441, -0.32623, -0.33125, 0.45056, -0.0751, 0.43059, -0.36025, -0.44483, 0.0086775, -0.30141, 0.28022, -0.32214, -0.25512, 0.21393, -0.12117, -0.11039, -0.37177, -0.0020214, 0.24616, 0.11157, -0.0092599, 0.36442, 0.26473, 0.16733, 0.49558, -0.062058, -0.49048, 0.3363, 0.48416, 0.25977, 0.018984, 0.22501, -0.034848, -0.023266, -0.38204, 0.48582, 0.049679, 0.068127, 0.048405, -0.36937, -0.32814, 0.32338, 0.00090634, -0.08252, -0.38564, 0.42982, -0.28701, 0.049401, 0.26434, -0.23898, -0.49575, 0.12349, 0.27664, 0.0080528, -0.11413, -0.14857, -0.17798, -0.15435, 0.45281, 0.10052, -0.080705, -0.10105, 0.33404, 0.36531, 0.15307, 0.31523, 0.32107, 0.40434, 0.21874, -0.40439, -0.21952, -0.48911, 0.23641, 0.029547, -0.10718, 0.45368, 0.36046, 0.43942, -0.14838, -0.38603, -0.21507, 0.1115, 0.42999, 0.2865, -0.27321, -0.013261, -0.41332, 0.32603, -0.33152, 0.15272, -0.34325, -0.49921, -0.0056711, 0.040417, 0.43348, 0.46994, -0.48949, -0.2339, -0.045455, -0.12713, -0.45275, -0.18044, 0.17762, -0.26838, 0.032077, 0.15538, -0.0049693, 0.18675, 0.17624, 0.45145, 0.29392, -0.01927, -0.044728, 0.090051, -0.43163, -0.29836, 0.065379, 0.19065, -0.37379, -0.043177, -0.16699, -0.13233, -0.14154, -0.020404, -0.43059, -0.084545, -0.34495, 0.17931, -0.025809, 0.41446, -0.36549, -0.0079569, -0.061765, -0.25554, 0.36667, -0.21755, -0.2842, 0.34977, 0.42577, -0.056195, 0.0061311, 0.40294, -0.079287, 0.44189, -0.073869, -0.12189, 0.2271, 0.019298, 0.41726, -0.38032, 0.010214, -0.020729, 0.16977, 0.47325, 0.19242, -0.40146, 0.08132, -0.10235, 0.42237, -0.34923, -0.2236, -0.067816, 0.07852, -0.37226, 0.0030797, -0.022282, 0.23971, -0.42638, -0.16426, -0.14019, -0.34053, -0.21635, 0.26944, 0.052579, -0.28014, -0.17843, 0.1243, 0.11872, 0.11509, -0.4362, 0.1451, -0.16338, -0.090448, -0.17002, 0.018118, -0.49706, -0.44113, 0.48064, -0.40698, -0.13856, 0.35085, 0.080717, -0.37365, -0.44885, 0.072758, -0.092651, 0.43135, -0.44277, -0.079227, -0.30732, -0.16576, -0.070669, 0.47867, -0.28937, -0.24021, 0.47352, 0.238, -0.23106, -0.25983, -0.29644, 0.37796, -0.30541, 0.40107, 0.062673, -0.11229, -0.45798, -0.49737, -0.18035, -0.24017, -0.41957, 0.0353, 0.28026, -0.27911, 0.24474, 0.12119, 0.46901, -0.067045, -0.065931, 0.4421, 0.4483, 0.22615, 0.010656, 0.17885, -0.40505, -0.4364, -0.35706, -0.48258, -0.061032, -0.45374, 0.48389, 0.21864, -0.42419, -0.45768, -0.26565, -0.44631, -0.26007, -0.13827, 0.36379, 0.38356, -0.023431, -0.18172, -0.41331, -0.2348, -0.0090327, 0.13235, 0.27243, -0.36413, 0.44589, 0.041746, 0.24097, 0.018552, -0.45347, 0.2635, 0.37071, -0.45892, -0.44082, 0.49092, -0.10939, -0.46557, 0.12512, 0.43445, 0.4604, -0.16525, -0.27635, -0.021177, 0.47214, -0.1416, -0.078509, 0.11738, -0.26214, -0.49889, 0.34218, 0.25481, -0.47572, 0.43087, 0.2275, 0.49711, -0.42252, 0.3323, -0.14115, -0.34993, 0.061813, -0.47255, 0.0027735, -0.15991, 0.41828, 0.35342, 0.36403, -0.18203, -0.096303, -0.045175, 0.36921, 0.24475, 0.16455, 0.046374, 0.20203, 0.19972, 0.28697, -0.26761, 0.45604, 0.095966, -0.06289, -0.15238, 0.063166, -0.14769, -0.18313, -0.28417, 0.24183, 0.040763, -0.10328, 0.18583, 0.25933, 0.27366, -0.22769, 0.21075, 0.47583, 0.28924, 0.41872, -0.058293, 0.10467, -0.47773, 0.23961, -0.22167, 0.24375, 0.29966, -0.39449, -0.29508, 0.27258, -0.47073, -0.22916, -0.36256, 0.28995, 0.37553, 0.094604, -0.28397, 0.074283, 0.29722, -0.032182, 0.27702, 0.25563, 0.49337, -0.21226, 0.25723, -0.28823, 0.07489, 0.37405, 0.3874, 0.038059, -0.074737, 0.34352, 0.3178, 0.41711, 0.27389, -0.026278, 0.051206, 0.037609, 0.1316, -0.25661, -0.41773, 0.19162, 0.39999, 0.48864, 0.36574, -0.26465, -0.11764, -0.43742, 0.42595, 0.21761, 0.3894, 0.44481, 0.30616, 0.45549, -0.30988, -0.056805, 0.36276, -0.2666, -0.10204, -0.13764, -0.39419, -0.0074312, -0.077774, -0.18738, 0.34515, 0.2883, -0.49924, 0.14958, -0.36679, 0.15704, 0.43085, 0.11968, 0.46404, -0.2739, -0.28278, 0.04989, 0.24029, -0.40394, 0.099256, -0.21422, -0.38122, -0.12639, -0.12219, -0.20382, -0.20516, 0.48, -0.20141, 0.19735, 0.064735, -0.27111, 0.37438, 0.40709, 0.09274, -0.47702, -0.017213, 0.47541, 0.068069, -0.27337, -0.0047415, -0.26492, 0.46166, -0.15565, -0.11753, 0.16115, -0.032316, 0.044375, -0.33004, -0.48948, 0.33334, 0.080663, 0.46951, 0.20962, -0.11086, -0.33799, -0.0099514, 0.45897, 0.071668, -0.26265, -0.35007, -0.21454, 0.43934, -0.32513, -0.46995, 0.015704, -0.33822, -0.26775, -0.38903, -0.13256, 0.45436, -0.23586, -0.2244, -0.36035, -0.057899, -0.33079, 0.36284, -0.0006589, -0.45569, 0.16478, -0.10923, 0.45723, -0.087721, 0.2559, -0.10374, -0.26319, -0.47831, 0.11893, -0.26443, 0.21917, -0.077873, 0.3793, -0.46237, -0.32834, -0.0072703, 0.16855, 0.46078, 0.43662, 0.2458, -0.062864, -0.0033045, 0.29909, -0.39566, 0.2642, 0.28264, -0.38798, 0.056686, -0.10902, 0.17418, -0.28513, -0.23318, 0.084874, 0.48983, -0.17166, 0.18635, -0.34729, 0.33006, -0.21413, -0.43484, -0.14007, -0.22754, -0.10944, 0.11766, 0.41222, -0.30691, -0.48355, -0.040267, 0.074253, 0.2348, 0.42026, -0.21493, 0.20514, 0.027267, -0.15522, 0.33042, -0.41994, 0.337, -0.24616, -0.06616, -0.10128, -0.44889, 0.11801, -0.25952, -0.19262, 0.16916, -0.35339, 0.19915, -0.018514, 0.3773, -0.31041, 0.16084, 0.47587, 0.41144, 0.16957, 0.41018, 0.28829, -0.053302, 0.2718, 0.048859, 0.25787, 0.11899, 0.42105, 0.21638, -0.05669, 0.24217, 0.19911, 0.071025, -0.48546, 0.28818, 0.34318, -0.38676, -0.0032116, -0.43144, -0.44507, 0.063127, 0.28306, 0.19276, 0.11758, 0.13994, 0.48768, -0.25387, -0.024949, 0.45006, 0.029234, 0.17529, -0.2549, 0.023157, -0.12101, -0.043951, 0.13478, -0.42404, 0.44677, -0.45793, -0.27063, 0.45065, -0.15823, -0.38211, -0.49451, -0.087656, 0.28105, -0.24611, -0.17536, 0.32145, 0.19241, -0.43021, -0.3188, -0.469, 0.30359, 0.24292, -0.15259, -0.29837, -0.41405, -0.46464, 0.32818, 0.15269, -0.11993, -0.23033, -0.21288, -0.35127, 0.48914, 0.46309, 0.3887, 0.25069, -0.44136, 0.077217, 0.02137, -0.07263, 0.051375, 0.24106, 0.016349, -0.35451, 0.48718, 0.0026627, -0.38601, 0.23575, 0.18541, 0.058934, -0.32088, 0.36238, 0.17018, 0.35106, -0.36372, 0.15826, -0.35729, -0.41658, -0.17697, -0.45473, -0.20364, 0.17034, 0.172, -0.40654, -0.076479, 0.077676, 0.30757, -0.061498, 0.35021, 0.17323, -0.079992, -0.14932, 0.39562, 0.061608, -0.42106, -0.47042, -0.38496, -0.49162, 0.10521, 0.12985, -0.17085, -0.27941, 0.44606, -0.15621, 0.31738, -0.21757, -0.022539, -0.21362, -0.32065, 0.25073, -0.1382, -0.13314, 0.45602, -0.40364, 0.063706, -0.41, -0.26942, -0.17423, 0.22032, 0.063041, 0.36341, -0.30903, -0.21444, -0.27959, 0.23421, 0.341, -0.27439, -0.49191, 0.081175, 0.41019, -0.32034, 0.14438, 0.13246, 0.19242, 0.05486, 0.052639, 0.40195, 0.34419, -0.15185, -0.41179, -0.45992, 0.21091, -0.17154, -0.33808, -0.28622, 0.39656, 0.34885, -0.44089, 0.29907, -0.30708, -0.35557, -0.14876, 0.049389, 0.28139, 0.44795, -0.401, 0.042464, -0.40827, 0.010166, 0.010123, -0.47452, 0.046455, 0.36007, -0.20769, -0.16988, -0.083433, 0.4052, 0.45819, 0.16002, -0.042295, -0.12165, 0.14665, -0.081291, 0.17545, 0.093936, 0.48111, 0.2938, -0.084359, 0.38169, -0.23273, -0.42536, 0.037988, 0.39487, -0.40853, 0.2214, -0.15132, 0.43783, -0.34573, -0.23936, 0.2134, -0.21046, 0.4806, -0.27066, 0.086117, 0.43366, -0.39815, 0.40449, 0.16262, 0.14757, -0.025057, -0.36576, 0.20234, 0.085288, -0.34988, 0.45369, 0.25909, -0.38579, -0.29449, 0.40546, 0.056832, 0.238, -0.2314, 0.28884, -0.26484, 0.4046, -0.45738, 0.40936, 0.26442, -0.045272, -0.015186, 0.40893, -0.34682, -0.20743, -0.10607, 0.39443, -0.10703, -0.023049, -0.16155, 0.25045, 0.41803, -0.34877, 0.26885, 9.326e-05, 0.12533, -0.40342, -0.091819, 0.44563, -0.307, -0.11979, 0.029087, -0.37127, 0.25452, -0.2645, 0.33721, -0.12871, 0.30833, 0.23214, -0.35087, -0.12751, -0.48611, 0.083219, 0.30495, 0.39122, -0.21169, 0.30913, -0.028391, -0.16642, -0.20349, -0.16177, 0.32289, 0.49077, -0.16942, -0.12239, -0.28085, 0.20162, 0.22933, 0.16362, 0.15399, -0.087333, 0.46712, 0.083511, 0.0011101, -0.34119, 0.49938, -0.25251, 0.25322, 0.29504, -0.23812, 0.38941, 0.45248, -0.45396, -0.49232, -0.19576, -0.14385, -0.094814, 0.26793, 0.436, -0.46315, 0.16712, 0.18964, -0.39842, 0.19198, 0.08742, 0.47788, 0.36991, 0.24125, 0.196, 0.35879, -0.18106, -0.34926, -0.0099105, -0.046425, -0.41177, 0.16681, 0.23759, 0.40747, -0.3644, -0.093857, -0.014787, 0.051137, 0.32633, 0.25417, 0.44251, 0.37648, 0.39356, -0.042521, 0.31422, 0.022902, 0.034295, -0.49961, -0.46291, 0.36432, 0.33439, 0.04006, -0.41481, 0.48826, 0.11081, 0.22761, 0.1386, -0.36636, -0.4539, 0.44704, 0.019754, 0.32745, 0.15383, -0.18624, -0.099403, -0.2819, -0.039596, -0.18559, -0.053439, -0.23915, 0.48347, 0.087806, 0.49025, -0.30073, -0.0037755, 0.20165, 0.16212, -0.36099, 0.33915, 0.18594, -0.16325, -0.26362, -0.15488, 0.081235, 0.10542, 0.22408, -0.28085, -0.31351, 0.027919, -0.46537, 0.26134, -0.37226, 0.12884, -0.20245, 0.0344, 0.27621, -0.38882, -0.1662, -0.25406, 0.15454, -0.39094, -0.29449, -0.34042, -0.0049926, -0.23282, -0.18859, 0.20914, 0.16999, -0.20932, 0.47481, -0.39633, 0.39205, -0.33823, 0.4128, -0.00048951, 0.19499, 0.33754, 0.26645, 0.41802, -0.020317, 0.3227, 0.31295, 0.48255, -0.27833, -0.0059846, -0.099597, -0.48552, -0.25642, 0.20881, -0.27836, 0.20336, -0.018434, -0.2652, -0.0032001, 0.10364, 0.26152, -0.10044, -0.032865, 0.48, 0.31265, 0.34893, 0.48548, -0.32625, -0.37392, 0.25032, 0.42996, 0.19627, 0.016198, -0.090269, 0.11912, -0.49645, 0.032182, -0.46724, 0.24944, 0.24252, 0.13828, 0.055104, 0.2901, 0.25818, 0.18572, -0.075387, 0.17487, 0.31817, 0.35309, 0.30719, 0.31734, 0.028067, 0.4023, 0.15375, -0.40336, -0.034329, -0.31447, -0.22145, -0.45996, -0.07613, -0.062876, 0.38601, 0.3499, 0.23663, 0.027209, 0.014036, 0.44901, 0.090815, 0.05367, -0.42477, 0.18269, 0.30166, -0.03932, -0.19387, -0.014879, -0.41512, -0.34605, 0.29618, 0.18271, -0.082632, 0.48672, -0.28345, 0.21301, -0.28255, 0.47299, -0.45891, 0.065534, 0.42808, -0.14967, -0.45997, 0.41445, -0.41908, 0.41251, 0.32258, 0.32112, -0.4624, 0.13997, -0.21201, 0.002395, 0.055225, -0.23858, -0.36279, 0.055087, 0.12636, 0.46437, 0.36101, -0.41876, 0.43099, -0.21606, 0.1735, -0.48646, -0.072508, -0.20534, -0.38311, 0.1562, -0.11694, 0.31234, 0.028301, -0.16095, 0.4966, 0.13738, -0.164, 0.38364, 0.33277, -0.15635, 0.38438, 0.32035, 0.34146, 0.4514, 0.23005, -0.063337, 0.29305, 0.38896, -0.33198, -0.48609, -0.21375, -0.09748, 0.2264, 0.077385, 0.48655, -0.36676, -0.2475, -0.27252, -0.33093, 0.3068, 0.20849, 0.031826, 0.1827, -0.45506, 0.38661, 0.11288, 0.42363, 0.18474, 0.38095, 0.0078993, -0.41823, -0.0084239, -0.4879, -0.2724, 0.43145, 0.43708, 0.34332, -0.10908, -0.048898, 0.10654, 0.34499, -0.0024356, -0.48458, -0.037526, -0.38127, -0.12613, -0.49029, -0.41786, 0.10351, -0.38804, 0.18275, -0.40626, -0.43411, 0.062722, 0.21326, -0.034261, 0.22092, 0.22182, -0.11893, -0.0076555, -0.21603, 0.39425, -0.11448, -0.31538, 0.30868, 0.3909, -0.27305, -0.34961, 0.31346, -0.4689, 0.12435, 0.12735, 0.063523, 0.16427, 0.089098, -0.19291, -0.36724, 0.30992, -0.031191, 0.0059752, -0.082173, 0.081111, 0.39236, -0.2434, -0.070952, -0.39221, -0.41732, -0.31128, -0.012832, 0.15518, 0.38736, -0.49862, 0.094956, -0.3753, -0.15076, 0.076754, -0.19471, 0.42474, -0.42946, -0.31468, 0.1499, -0.14747, -0.46242, -0.26627, -0.22124, -0.032761, 0.20232, 0.11154, 0.22881, -0.052054, -0.48164, 0.27115, -0.22699, 0.11818, -0.25402, 0.41357, 0.08794, 0.083034, 0.14986, -0.081874, 0.36801, -0.2945, 0.3151, 0.29701, 0.40458, 0.3789, -0.1832, -0.14085, -0.46777, 0.25687, 0.0615, -0.19748, 0.041148, -0.49639, 0.36246, 0.45469, 0.025536, 0.37848, 0.26276, 0.074921, 0.040159, 0.42067, 0.37249, -0.33727, -0.45039, 0.33093, -0.37578, 0.13988, 0.34078, 0.49555, 0.11338, -0.35324, 0.22788, 0.0055748, 0.22159, -0.45966, -0.37722, 0.12264, 0.3284, -0.28402, -0.018304, 0.24414, 0.41102, -0.44064, 0.46661, 0.42005, -0.26901, -0.24577, -0.19503, 0.37026, 0.11246, -0.10501, -0.30797, -0.24801, -0.036579, 0.19515, -0.035723, -0.0045026, 0.18734, -0.3779, -0.45349, 0.0059406, 0.15808, -0.39783, 0.4922, 0.07808, -0.1223, -0.4736, -0.1308, -0.13991, -0.32914, 0.49075, -0.45798, 0.21019, -0.36826, -0.033459, -0.069911, -0.2169, 0.21093, 0.37675, 0.35416, -0.1141, -0.41751, -0.39539, 0.379, 0.49712, 0.35741, -0.44591, -0.017315, 0.22174, -0.3729, -0.067469, -0.46684, -0.12307, -0.43757, 0.0065128, -0.15061, -0.47298, 0.1936, 0.46389, 0.34428, -0.29697, -0.22997, 0.0022924, 0.4041, 0.091387, -0.19212, -0.26901, -0.38103, -0.45812, 0.28805, 0.44673, -0.10301, -0.15908, -0.052472, -0.083537, 0.021781, 0.31735, -0.44971, 0.3419, -0.32366, -0.14518, 0.303, -0.19405, -0.48647, 0.23364, 0.46305, -0.33413, -0.49344, 0.059561, 0.48115, -0.27282, -0.37103, 0.41708, -0.27121, 0.22773, 0.066461, -0.40597, 0.43724, 0.05191, 0.28905, -0.20841, 0.079748, 0.2978, 0.47358, 0.04047, 0.2107, 0.076966, -0.097071, -0.10978, 0.18312, 0.038085, -0.1314, 0.24507, -0.23269, 0.27844, -0.19313, -0.15762, 0.087896, 0.26894, -0.2708, 0.4815, -0.12376, -0.29341, -0.29596, 0.078721, -0.40204, -0.41273, -0.12659, 0.17838, 0.49041, -0.34197, 0.028001, -0.45618, -0.29981, 0.26973, 0.40764, -0.13142, -0.47597, 0.33075, -0.08644, -0.31525, 0.48532, -0.2081, 0.06461, 0.31212, -0.26141, -0.35312, 0.30768, -0.26754, 0.026318, -0.45794, 0.13882, -0.2859, -0.036456, -0.49219, 0.37218, -0.44093, 0.040516, -0.02204, 0.045596, -0.0035139, -0.38406, -0.040132, -0.36526, -0.47266, -0.39264, -0.067193, -0.10914, 0.020233, -0.15124, -0.17227, -0.0064671, 0.34544, 0.3696, -0.079136, 0.14111, 0.45761, 0.088148, 0.49567, 0.35776, 0.20195, 0.33883, -0.35396, -0.38001, -0.30591, -0.015017, -0.41072, -0.026139, -0.057148, -0.20575, -0.14066, 0.2294, 0.31644, 0.45739, -0.30407, 0.12544, -0.017846, -0.31142, 0.18317, -0.0037639, 0.25462, -0.47347, 0.10525, 0.15447, 0.2955, 0.15198, -0.063437, 0.017513, -0.47756, 0.27608, 0.39006, 0.26277, -0.20571, 0.21131, -0.43191, -0.3778, 0.17717, -0.37075, -0.38732, 0.08447, 0.38062, -0.099475, 0.40038, -0.24081, 0.27194, 0.32046, 0.16667, 0.013635, 0.023367, 0.34434, 0.19241, 0.041342, 0.29289, -0.36612, -0.43449, -0.47485, -0.224, -0.1751, -0.40068, -0.046517, 0.05271, -0.12424, 0.081902, -0.27731, 0.25438, -0.40649, 0.10103, -0.43176, -0.43433, 0.099055, 0.45416, 0.34302, -0.18673, -0.016115, -0.43946, -0.19501, 0.29064, -0.22176, -0.47284, 0.25109, 0.33675, -0.44751, 0.14078, -0.17915, -0.36719, 0.10604, 0.18306, -0.11609, -0.22481, 0.13174, 0.29348, 0.27193, -0.17003, 0.17357, -0.018531, -0.20729, -0.13448, -0.084709, 0.18751, 0.058418, -0.46065, -0.36575, -0.07722, 0.39129, -0.39398, -0.24759, -0.016868, -0.47839, -0.084111, 0.15052, -0.085614, 0.36689, 0.011561, 0.45746, 0.30722, 0.16999, 0.12746, -0.25048, 0.41167, 0.32659, -0.44436, -0.1788, -0.28289, -0.19244, -0.049676, -0.053324, -0.38252, 0.35992, 0.13358, -0.34811, 0.29059, 0.29178, 0.48219, -0.20959, -0.39806, -0.3162, 0.32594, 0.11687, 0.42418, -0.15566, 0.098821, -0.27419, 0.18291, -0.40959, -0.24923, 0.204, 0.44846, -0.39718, 0.423, 0.46303, -0.25624, 0.29003, -0.40216, 0.069654, -0.4889, -0.49726, 0.28258, -0.34064, -0.33941, 0.49058, -0.44629, 0.21046, -0.17821, -0.24691, -0.44429, 0.18139, 0.26863, -0.071781, 0.21966, -0.35817, -0.25419, 0.18899, 0.11035, 0.019477, -0.45836, -0.39175, -0.098458, 0.41808, 0.090904, -0.30206, -0.31984, -0.36507, -0.090737, 0.32112, 0.24992, 0.18714, 0.11579, 0.3932, -0.4228, -0.090255, 0.33253, -0.076311, 0.31028, 0.45183, 0.39189, -0.41563, -0.31383, 0.20639, 0.18369, -0.4439, 0.28121, -0.033956, 0.28722, 0.49195, 0.1606, -0.34008, 0.45526, 0.47624, -0.038201, -0.071199, 0.24339, -0.32784, 0.19319, -0.3499, -0.35407, -0.38103, 0.17956, 0.32355, -0.0084428, 0.36536, 0.49776, 0.48162, -0.35341, 0.3505, 0.067965, 0.38166, -0.40563, 0.12382, -0.09523, 0.070305, -0.39686, -0.059853, -0.010933, 0.14946, 0.38303, 0.48833, 0.29385, 0.1361, -0.18804, -0.16346, 0.30685, -0.092326, -0.12101, -0.27205, -0.42262, -0.37351, -0.46894, 0.11748, 0.10878, 0.26274, -0.091695, -0.40062, -0.13896, -0.088742, -0.065614, 0.096583, -0.029844, -0.2455, -0.27914, -0.26638, 0.46014, 0.33333, -0.22306, -0.061385, 0.47769, -0.32846, 0.3206, 0.44821, -0.35076, 0.17848, 0.36323, -0.41275, 0.48544, 0.22336, -0.21525, 0.17636, 0.072688, -0.1451, -0.357, 0.47074, 0.014775, -0.23895, 0.45206, -0.13632, -0.42807, -0.36465, -0.38262, 0.29098, -0.45787, -0.21023, 0.011948, 0.066591, 0.41598, -0.3418, -0.44349, 0.07239, -0.16825, -0.089478, 0.43033, -0.49986, 0.030155, -0.19734, 0.48538, -0.44825, -0.37062, 0.36806, -0.15123, -0.38341, 0.13023, -0.49217, -0.47539, -0.085924, -0.13957, 0.18718, 0.46828, 0.18696, 0.26246, -0.43353, 0.44415, -0.064692, 0.39043, 0.24224, -0.13218, -0.31774, -0.2311, -0.15475, -0.13561, 0.30309, -0.43684, -0.19058, 0.21041, 0.37948, -0.31153, 0.26473, -0.20531, -0.18558, -0.41681, -0.40504, -0.081503, -0.075708, -0.207, 0.12355, -0.45737, -0.3705, -0.3161, -0.36622, 0.27782, -0.09418, 0.2143, -0.098932, 0.10738, -0.47952, -0.27933, 0.48102, 0.29703, 0.16857, -0.1361, 0.27345, -0.33854, -0.17555, 0.22735, 0.085557, -0.096377, 0.28372, 0.35163, -0.21172, -0.26226, 0.28546, -0.19215, 0.044121, -0.12157, -0.15095, -0.403, -0.39151, -0.33871, -0.40476, -0.1455, -0.2089, 0.43972, 0.006021, 0.29398, 0.067613, 0.057026, -0.0011515, 0.48953, -0.44157, 0.13268, 0.12684, -0.43865, 0.34527, -0.028857, 0.023797, 0.37702, -0.3934, -0.45175, -0.19665, -0.3546, -0.42527, 0.30484, -0.31626, -0.28554, -0.09205, 0.10395, 0.02623, 0.32118, 0.48304, 0.36961, -0.18206, 0.37449, 0.075452, 0.40634, 0.35147, 0.011273, 0.26244, -0.18202, -0.26377, 0.32645, 0.32199, 0.33553, -0.42145, 0.095307, 0.28998, -0.4409, 0.45439, -0.43426, -0.083072, 0.044401, 0.46593, -0.2238, 0.16274, -0.10521, -0.067619, 0.019933, -0.079722, 0.41254, -0.1794, -0.41833, 0.30467, 0.43952, -0.12694, -0.10039, -0.40869, 0.040349, 0.11959, 0.096626, -0.34002, 0.42392, 0.23823, 0.3689, 0.20977, 0.02997, -0.23066, 0.021454, 0.4551, -0.057013, 0.21146, 0.35571, -0.19792, -0.41264, -0.12835, -0.11301, -0.42653, 0.44738, -0.46302, 0.49788, -0.3525, 0.46422, -0.18535, 0.39514, 0.12502, 0.046834, -0.14761, 0.31728, 0.43141, -0.11509, 0.19585, -0.19717, 0.054892, -0.23043, -0.042463, 0.17256, -0.42833, -0.43777, -0.30363, 0.16315, 0.23061, -0.30616, 0.025757, 0.48185, 0.11295, -0.38604, 0.48227, 0.20001, 0.010109, -0.22878, -0.39662, 0.3557, -0.40051, 0.43687, 0.16144, -0.23908, 0.13192, -0.16499, 0.1103, -0.27637, -0.45284, 0.33741, -0.35338, -0.25553, 0.055392, 0.22511, -0.023526, -0.028588, 0.08667, -0.26436, -0.063106, -0.20633, -0.20158, 0.25512, -0.29127, -0.18458, -0.47771, -0.051576, -0.054327, 0.090521, 0.22564, -0.0072774, -0.34592, 0.42684, -0.033691, -0.41591, 0.38117, 0.046968, -0.22068, 0.2975, 0.34711, -0.16051, 0.009874, -0.29228, 0.26799, 0.37269, -0.49685, -0.31771, -0.21887, -0.45846, 0.3998, -0.47517, -0.27339, 0.37341, 0.14169, 0.03965, 0.036464, 0.10467, 0.22891, -0.17283, -0.31903, -0.42097, -0.24899, 0.12328, -0.28993, 0.027932, 0.47662, -0.22372, -0.020946, 0.42673, -0.26959, -0.26208, -0.19771, -0.079251, -0.15647, -0.3083, 0.12987, 0.40372, 0.060245, -0.43301, -0.2558, -0.43559, -0.39963, 0.26296, -0.46296, -0.01279, -0.26699, 0.19794, 0.26885, -0.47605, 0.058207, -0.43468, -0.26623, -0.071205, 0.42811, -0.44202, 0.40074, -0.4506, 0.10287, 0.076978, -0.33843, -0.45239, 0.35124, -0.049107, 0.28848, 0.0033068, 0.46298, 0.13895, -0.081165, -0.17965, 0.49614, -0.20276, -0.059121, -0.42294, -0.1718, 0.25647, -0.18398, -0.14789, -0.099242, -0.42912, -0.38118, -0.056899, 0.49529, 0.039744, 0.10184, -0.091094, -0.26546, 0.28362, -0.14052, -0.3282, -0.49758, -0.32649, -0.034891, 0.11127, -0.43053, 0.2266, -0.40644, -0.067461, -0.4159, -0.35858, 0.15273, -0.077788, -0.36674, -0.024046, 0.056235, -0.36453, 0.34743, -0.35907, -0.40987, -0.10252, -0.46096, 0.35016, -0.38636, 0.28149, -0.056576, -0.40504, -0.30615, 0.0031807, 0.27392, -0.48522, 0.1504, 0.21316, 0.30737, 0.30287, -0.49749, -0.20727, 0.12621, -0.34658, 0.094144, -0.069026, 0.36878, -0.054047, -0.28239, -0.39685, 0.33995, -0.084428, -0.00973, -0.31751, -0.057084, 0.48489, 0.24768, 0.010787, 0.15182, -0.2491, 0.16946, -0.046928, -0.18485, -0.31705, 0.34328, 0.26261, 0.083463, 0.057977, -0.080007, -0.13688, 0.14035, 0.30806, 0.11254, -0.032355, -0.42388, -0.26832, 0.10076, 0.22322, -0.37809, 0.34148, 0.23113, 0.12751, -0.0030219, -0.24509, 0.479, 0.33347, -0.073825, 0.10481, 0.26715, 0.49872, 0.21243, 0.02952, 0.044476, 0.3081, -0.33367, -0.44452, 0.22492, -0.016273, 0.45947, -0.41206, -0.24187, 0.43528, -0.059128, 0.24196, 0.12047, 0.12802, -0.11016, -0.35483, 0.42526, -0.45998, -0.26148, 0.47202, -0.086402, -0.18602, 0.071254, -0.2097, 0.32782, -0.19255, 0.25813, -0.19911, 0.003065, 0.050765, 0.38602, -0.44666, -0.26788, 0.2817, 0.20668, 0.43973, 0.20079, -0.25067, -0.38336, -0.3329, 0.13981, -0.3217, 0.27688, -0.4402, 0.4819, -0.16151, 0.11941, 0.24798, 0.1128, 0.11411, -0.25548, 0.024355, -0.01747, -0.45262, 0.41111, -0.32829, -0.017819, 0.0083635, -0.48544, -0.044991, 0.15027, 0.21272, -0.42944, -0.14122, -0.29534, -0.00074129, -0.42433, 0.31061, 0.37095, 0.14508, 0.0030052, 0.30086, -0.28828, 0.052056, 0.058676, 0.30133, 0.15326, 0.25757, -0.47394, -0.43438, -0.31104, 0.23841, 0.46641, -0.46412, 0.45178, 0.1442, 0.37832, 0.28473, -0.29763, -0.16927, 0.081138, 0.20202, -0.11895, -0.40637, -0.25701, -0.39174, -0.47018, 0.18946, -0.4162, 0.070078, -0.13099, 0.36251, -0.095904, -0.0063032, -0.038139, 0.33503, -0.44415, 0.14564, -0.14379, 0.15207, -0.29375, 0.28264, 0.18501, 0.18195, 0.20625, -0.077404, 0.18798, -0.15418, -0.36161, -0.11087, 0.26878, -0.3988, -0.40683, 0.1679, -0.060611, -0.45233, -0.2589, -0.26262, -0.41398, -0.4631, -0.093151, -0.14568, -0.34862, 0.24666, 0.47132, 0.020314, -0.37102, -0.16639, -0.029701, -0.42748, -0.30417, 0.40208, 0.43826, 0.046685, -0.37779, -0.18132, -0.25505, 0.35297, -0.43664, 0.12529, -0.054686, 0.20211, -0.2158, 0.25525, -0.098944, 0.30014, -0.45375, -0.40085, -0.23311, -0.33977, 0.31345, 0.38675, 0.30239, 0.18795, -0.34421, -0.10991, -0.27392, -0.26492, -0.46834, -0.40777, -0.43743, 0.3066, 0.12336, -0.0027433, -0.030484, 0.19687, 0.38459, -0.29058, -0.017751, -0.28683, -0.44254, -0.088488, -0.091781, 0.01242, 0.10498, -0.063335, -0.24236, -0.40753, -0.084025, -0.39731, 0.077921, -0.14377, 0.15752, 0.32105, 0.043139, -0.21529, -0.11976, -0.41037, -0.055652, -0.41925, -0.45655, -0.13473, 0.34937, -0.26279, -0.48132, 0.087484, -0.23409, -0.42774, -0.19196, -0.46493, -0.4161, -0.29561, -0.19653, 0.025598, 0.19192, 0.45636, -0.3904, 0.16304, -0.0085205, 0.39937, 0.21478, -0.27197, 0.47624, 0.10711, -0.39394, 0.46027, -0.1845, 0.12537, 0.30667, -0.0014164, 0.32926, 0.059791, -0.26977, -0.48395, -0.20208, -0.048153, -0.12045, 0.44025, 0.27992, 0.33332, -0.29095, 0.44867, 0.32737, -0.12519, 0.25698, -0.38593, 0.49611, -0.1975, 0.33706, -0.37149, -0.49029, 0.1968, 0.22322, -0.2101, 0.12051, 0.0036756, -0.3097, -0.055863, -0.1273, 0.18161, 0.034679, -0.10512, 0.1873, 0.48413, -0.12894, -0.46736, -0.391, -0.37774, -0.2683, -0.13753, 0.15353, 0.35774, -0.40825, 0.031145, -0.46692, -0.10885, -0.21756, 0.48926, -0.46936, 0.065173, 0.21575, -0.12672, -0.018348, 0.15617, -0.46589, -0.15411, -0.45355, 0.29246, -0.15771, -0.023839, -0.48005, 0.079614, -0.12276, -0.4829, 0.027296, 0.44464, 0.30034, 0.37978, -0.12602, 0.20379, 0.4138, 0.29934, -0.45865, -0.40287, 0.29679, -0.47923, 0.34731, -0.051076, 0.3895, -0.49325, -0.16211, 0.085116, 0.10876, -0.46305, 0.42264, -0.47626, 0.067098, -0.020645, 0.13808, -0.41859, -0.0084464, -0.32501, -0.13364, 0.1028, -0.17901, 0.18576, 0.018282, -0.23035, 0.1059, 0.27698, 0.080984, 0.041799, -0.22804, 0.077491, -0.091953, -0.40056, 0.07507, 0.20403, 0.013012, 0.42998, -0.49512, -0.20469, 0.082215, -0.21253, -0.16511, 0.18614, -0.38519, 0.30771, 0.038777, -0.1949, -0.29694, -0.47301, -0.27015, -0.36404, -0.059464, -0.4394, -0.17727, -0.34848, 0.11071, 0.3016, 0.3366, -0.29229, -0.093514, -0.069645, -0.37791, -0.43993, 0.046901, -0.14518, 0.16824, -0.15195, -0.023268, -0.4559, 0.23927, -0.46605, -0.32849, -0.11387, -0.0070916, -0.44243, 0.15428, -0.17057, 0.15717, 0.2645, -0.24188, -0.27073, 0.20601, -0.43954, -0.38872, 0.088423, -0.47862, -0.29657, -0.22319, 0.43803, 0.35616, 0.11921, 0.37475, -0.1807, 0.00061957, 0.21659, 0.098427, 0.16041, 0.45079, 0.22617, -0.19221, -0.11076, -0.22308, 0.13848, 0.09762, -0.11881, -0.1911, -0.29948, 0.12892, -0.28004, -0.34488, 0.24388, 0.21055, 0.47679, 0.38315, -0.22077, 0.019735, -0.29897, 0.043532, -0.48475, -0.088054, -0.33726, -0.37345, 0.44058, 0.145, -0.043028, 0.01252, -0.15671, 0.49094, -0.047301, 0.31161, -0.10617, 0.38983, 0.32427, 0.06812, 0.39803, 0.0037055, 0.16058, -0.30969, -0.49673, 0.062441, 0.24163, -0.2098, -0.021292, -0.24432, 0.17716, -0.067045, 0.43388, 0.04976, -0.39284, -0.25555, -0.0071191, -0.48526, -0.0061753, -0.18839, -0.06631, 0.42264, 0.0091394, -0.080052, -0.38944, 0.43073, -0.11073, -0.020861, 0.21756, 0.38712, 0.071321, -0.24279, -0.41123, 0.085586, -0.14796, 0.17385, -0.039516, 0.37508, -0.13785, 0.21279, -0.24357, 0.32171, -0.33713, 0.045456, -0.16305, 0.15229, 0.37654, -0.40868, 0.46189, 0.43484, -0.48357, -0.059258, -0.35509, -0.028338, -0.065651, 0.13207, -0.46191, 0.34643, 0.17669, -0.31294, -0.29915, -0.13569, 0.47311, -0.046934, 0.17336, -0.33789, 0.41024, 0.3806, 0.047271, -0.039856, -0.23031, 0.44886, -0.31382, 0.13146, -0.21471, -0.30283, 0.38054, -0.46968, 0.072681, 0.17247, -0.25711, -0.47407, -0.034866, 0.39509, 0.051995, -0.0089915, 0.36414, -0.37392, 0.043164, 0.41588, 0.28642, 0.0033776, -0.0053532, 0.01158, -0.4172, -0.0052279, -0.27947, -0.061747, -0.36689, 0.090596, -0.010691, 0.28313, -0.20125, 0.29238, 0.14119, -0.4985, -0.20134, 0.11652, -0.49351, -0.09428, -0.1378, 0.47203, -0.35142, 0.097531, 0.31967, -0.2732, -0.20977, -0.30663, 0.49685, 0.42649, 0.35447, -0.37801, 0.21928, -0.33935, -0.42774, 0.22899, -0.34985, -0.33323, -0.062851, -0.37162, 0.064613, 0.34278, 0.038337, -0.081856, -0.20819, -0.25557, -0.4678, 0.12193, -0.34382, 0.032497, -0.4415, -0.10479, -0.23046, -0.32332, -0.1179, 0.47692, -0.36118, -0.020262, -0.34954, 0.48033, 0.37539, 0.14898, -0.34364, 0.076829, -0.15127, 0.4426, -0.44722, -0.49266, 0.065631, -0.20281, 0.051738, -0.38818, 0.13508, -0.49521, 0.34091, 0.19332, 0.36859, -0.22854, 0.47363, -0.24281, -0.074949, -0.23445, 0.48698, 0.38932, 0.49526, 0.03826, -0.47988, -0.34718, -0.41183, 0.16255, 0.11974, -0.074346, 0.49221, -0.39598, -0.026862, 0.38989, 0.082569, -0.38211, 0.024096, -0.1245, 0.20723, 0.083416, -0.34608, -0.16604, 0.46096, -0.4943, 0.0083871, -0.029543, 0.4131, 0.1928, 0.24457, -0.37205, 0.1124, 0.11817, -0.40062, -0.0060635, 0.064226, 0.32075, -0.26909, -0.16572, -0.23449, 0.094291, 0.15384, 0.46954, -0.07544, -0.10277, -0.086309, -0.40242, 0.052139, -0.37472, 0.37325, -0.3475, 0.11063, -0.25052, 0.016316, 0.26585, 0.21137, 0.37383, 0.46324, 0.27818, 0.069332, -0.34268, -0.48615, -0.37812, 0.12764, -0.2963, -0.072444, -0.38037, 0.11034, -0.052613, 0.20896, -0.41491, 0.47433, 0.43619, 0.13389, 0.17053, -0.36143, 0.021835, -0.40138, -0.41249, 0.24822, 0.184, -0.38916, -0.33186, -0.45621, -0.40494, 0.49898, 0.33558, 0.14341, 0.45064, -0.06375, 0.28295, 0.4963, -0.27189, 0.042604, 0.24983, -0.16403, 0.027339, -0.35969, 0.17928, -0.16381, -0.16961, 0.089951, -0.46214, 0.36998, 0.15101, 0.36359, 0.34481, 0.48288, 0.08244, -0.19624, -0.047441, -0.16532, 0.16415, -0.23532, -0.47446, -0.2856, -0.38256, -0.018375, 0.1153, 0.29901, 0.05921, -0.47583, 0.3834, 0.40435, 0.31315, -0.45604, -0.34714, -0.32072, -0.28095, 0.46576, 0.40107, 0.40844, 0.46653, -0.12101, -0.39603, 0.26472, 0.089006, 0.21844, 0.17263, 0.13126, -0.15009, -0.022664, 0.022356, 0.48478, -0.0061185, 0.12743, 0.21057, -0.28743, 0.47915, 0.13904, 0.37231, 0.46232, 0.28097, -0.078845, -0.19596, -0.11598, 0.053316, -0.30503, 0.02944, 0.22512, -0.27799, 0.17091, -0.41651, -0.18358, 0.40875, -0.10612, 0.14336, 0.30598, 0.33016, 0.36763, 0.34772, 0.017121, -0.30972, 0.026905, -0.49295, -0.31927, -0.031161, 0.35937, 0.064786, -0.30864, 0.062781, 0.065456, 0.3307, -0.099706, 0.30028, 0.43793, 0.42232, -0.12892, -0.044253, -0.45932, -0.18722, -0.33297, -0.28948, 0.24945, 0.013001, 0.42344, 0.47218, 0.32102, 0.14016, 0.014249, -0.034383, 0.47046, -0.43481, 0.16627, -0.38836, -0.17853, -0.12983, 0.47683, -0.39199, -0.12505, 0.41783, -0.47047, 0.33844, -0.31027, 0.022802, 0.19699, -0.077342, 0.015344, -0.20325, 0.35654, 0.20462, -0.39462, -0.42684, -0.20291, 0.41325, 0.30406, -0.44982, -0.3042, 0.13537, 0.041971, -0.21538, 0.32847, -0.39474, 0.4542, 0.1827, -0.3273, -0.046047, -0.10425, -0.23998, -0.15588, 0.16241, -0.37937, -0.46042, 0.27833, 0.084269, 0.10097, 0.31414, 0.38323, -0.33436, 0.18408, -0.32862, 0.41131, -0.40312, 0.36309, -0.40757, 0.010044, 0.2617, -0.30549, 0.076149, 0.35117, 0.29875, 0.25559, -0.080553, -0.47956, -0.28381, -0.36323, 0.15973, 0.32409, 0.057541, -0.47995, -0.1159, -0.096027, 0.20449, 0.042855, -0.44627, -0.064112, -0.11037, 0.097259, 0.32481, -0.11436, -0.43288, 0.32762, -0.19865, -0.016514, 0.38805, -0.4312, 0.25469, 0.095937, -0.15029, -0.49403, 0.080817, -0.079994, 0.4927, -0.28923, -0.41623, -0.41647, 0.44857, 0.084692, -0.04962, 0.039491, -0.01305, 0.14175, 0.18949, 0.04254, 0.086962, -0.17189, -0.39144, 0.22925, -0.080668, 0.31591, -0.23199, -0.30385, 0.22021, 0.027418, 0.026169, -0.43223, -0.17304, -0.2739, -0.32179, -0.079671, 0.37728, -0.36423, 0.1435, -0.21122, -0.25536, -0.086075, -0.049987, 0.10681, 0.44012, -0.10867, -0.27905, -0.13241, 0.34649, -0.13856, 0.48063, -0.11812, 0.37443, -0.28088, 0.1809, -0.34777, -0.20141, -0.20629, 0.034049, 0.15676, -0.25723, -0.16561, -0.20728, 0.30946, 0.1891, -0.13357, -0.0078928, 0.15239, -0.3504, 0.41798, -0.31749, -0.061168};
data_type kernel2_weight[1][1][64][32] = {-0.10429, -0.11564, 0.27155, -0.28517, -0.2751, -0.45316, -0.036552, -0.26986, -0.078967, -0.48386, 0.088897, 0.23956, -0.17114, 0.4956, 0.035863, -0.29227, -0.19279, -0.27157, 0.058765, -0.32988, 0.2649, -0.0024297, 0.013678, -0.36226, 0.19224, -0.13673, -0.37411, -0.49751, 0.055845, -0.34394, -0.41104, 0.16219, 0.3758, -0.065104, -0.47936, -0.33205, -0.27169, -0.19546, 0.39199, -0.21515, 0.038163, 0.12443, 0.11873, 0.27319, -0.27208, -0.42145, -0.060708, 0.04702, 0.24514, -0.21395, -0.29368, -0.35197, 0.18562, -0.099868, 0.20046, 0.087349, -0.45165, -0.27606, -0.35608, -0.47914, -0.025701, 0.45616, 0.4408, 0.28186, -0.26123, 0.1133, -0.27242, -0.0043661, -0.0064732, -0.41285, 0.32138, 0.16797, 0.015528, -0.26193, -0.454, -0.39003, 0.40536, -0.16312, 0.37473, 0.37839, 0.4777, -0.1957, 0.094341, 0.40997, 0.28652, -0.38414, -0.16711, -0.27809, 0.06508, -0.23997, -0.24956, -0.046215, 0.42472, -0.47181, -0.10467, -0.27776, -0.10602, -0.46537, 0.48353, 0.016626, 0.43135, -0.099663, 0.37215, -0.11338, 0.21232, -0.30546, -0.14384, -0.013531, -0.083706, 0.49274, 0.16072, 0.089662, 0.40462, 0.34027, 0.43421, 0.27616, 0.32434, -0.28546, 0.24957, 0.17916, -0.44406, 0.046072, 0.29664, -0.4441, 0.14505, 0.43699, -0.4756, 0.24969, -0.35652, -0.2812, -0.44039, -0.093804, 0.12806, -0.30064, -0.1004, 0.2656, -0.15457, 0.30885, -0.42024, -0.49428, 0.034396, -0.073239, -0.23921, 0.33528, 0.3716, 0.037158, 0.22548, -0.21193, 0.16459, -0.18353, -0.33899, -0.028392, -0.35897, -0.13897, -0.28324, -0.064998, 0.37531, -0.44095, 0.0036478, -0.3183, 0.17243, -0.47981, 0.095506, -0.2632, -0.3186, -0.0014631, 0.0093379, -0.40435, -0.27076, 0.11735, -0.17423, 0.12591, -0.12794, 0.32335, -0.28323, -0.26071, -0.49971, 0.063584, 0.086598, 0.24725, -0.048474, 0.28244, -0.42468, 0.41367, 0.0057109, -0.47781, -0.46315, -0.21261, 0.19398, -0.23279, -0.43027, 0.14782, -0.32439, 0.26313, 0.49828, 0.036364, 0.016009, -0.25821, -0.24279, -0.03982, 0.41895, 0.29544, 0.21057, 0.35898, -0.26614, -0.21188, -0.40268, -0.42692, 0.082616, -0.21583, 0.3653, 0.36256, -0.087178, 0.29272, -0.42384, -0.32817, 0.45013, -0.19792, 0.32128, -0.30247, -0.060827, 0.17864, 0.31307, 0.14085, 0.49975, -0.11013, 0.10079, 0.46214, -0.090877, -0.30873, 0.10699, -0.20738, -0.10592, -0.23466, -0.42752, 0.36017, -0.39766, 0.012094, -0.030856, 0.45297, -0.23728, 0.33416, 0.49657, 0.11368, -0.081873, 0.27512, -0.48531, 0.034418, -0.49191, 0.23591, 0.48884, -0.079699, 0.1355, 0.37235, 0.40487, -0.42608, 0.46443, -0.07733, -0.44737, -0.24356, 0.36907, 0.10179, -0.053689, 0.013416, 0.31515, -0.45282, 0.39901, 0.43728, -0.44482, -0.033896, -0.1502, -0.38767, 0.31301, 0.20493, 0.36511, 0.4395, 0.11218, 0.17466, 0.46902, 0.36258, -0.1167, 0.17108, -0.035659, -0.29289, -0.34464, -0.40761, -0.21849, -0.055972, -0.43225, 0.049683, -0.37533, -0.21681, -0.39558, -0.019394, -0.0035936, -0.36425, 0.38049, 0.35345, -0.14569, 0.28384, 0.37287, -0.16706, 0.077349, 0.3024, 0.023479, 0.37814, -0.32082, 0.10561, -0.20642, -0.44954, 0.23607, 0.49456, -0.35985, 0.11673, 0.16144, 0.072846, -0.30533, 0.18644, -0.21248, 0.35665, -0.42915, -0.11154, 0.39515, -0.46854, -0.28237, -0.11847, 0.040963, -0.054003, 0.15189, 0.26433, -0.41023, -0.067961, -0.32703, 0.027082, -0.44306, 0.15102, 0.3939, -0.36847, 0.19466, -0.39771, 0.39366, -0.44462, -0.33181, 0.21834, 0.41449, -0.32919, -0.21761, -0.35956, 0.18805, 0.49719, 0.47723, 0.3131, -0.25291, 0.31063, 0.36842, 0.37611, 0.25933, -0.080988, 0.080462, 0.016388, 0.26748, -0.4955, -0.39952, 0.27402, 0.038952, -0.41949, -0.25008, 0.36511, 0.023745, 0.3496, -0.20377, 0.48938, 0.19778, -0.085531, -0.16511, -0.24365, -0.12253, 0.20633, -0.039465, -0.48337, -0.47132, 0.3377, 0.10866, -0.2523, -0.18875, -0.064095, 0.048779, -0.22562, 0.47325, 0.44696, -0.035339, -0.15579, 0.39753, 0.19985, -0.35303, 0.48356, 0.47872, -0.2788, 0.012295, 0.12975, 0.39114, -0.44789, -0.44047, 0.48682, -0.072952, -0.45006, 0.12236, -0.15119, 0.22005, -0.39008, -0.03129, 0.3039, 0.20737, -0.13781, 0.041213, 0.17901, 0.29794, 0.080157, -0.23742, -0.44024, 0.30883, 0.11125, 0.29849, 0.054652, -0.0015141, -0.25834, 0.20481, -0.13275, -0.33267, -0.16404, -0.12404, -0.20182, -0.050279, 0.37713, -0.39196, 0.40075, -0.034832, -0.3043, 0.34913, -0.079048, 0.037933, 0.36274, -0.17528, -0.10661, 0.1846, -0.16058, -0.0053705, -0.19153, 0.25286, 0.47117, 0.010348, 0.25205, 0.070433, -0.2982, -0.090766, 0.21429, -0.078242, -0.14033, 0.44314, -0.46411, 0.095764, 0.46887, 0.1269, 0.43148, 0.0615, -0.26026, 0.26279, 0.23179, -0.0053714, -0.48507, 0.11039, 0.12289, -0.064843, 0.30119, 0.31063, -0.25131, -0.22301, -0.050496, -0.38439, -0.46672, -0.3211, 0.4921, -0.24623, 0.42919, 0.30961, -0.23321, -0.45637, 0.16388, 0.22854, 0.28074, 0.26054, 0.0077411, 0.25137, -0.059246, -0.12678, 0.1923, 0.31248, 0.38566, 0.2655, 0.46362, -0.44794, 0.31244, 0.13837, 0.42533, -0.39097, -0.11924, 0.43735, 0.30773, -0.38698, -0.46601, 0.28363, -0.069123, 0.24052, -0.29713, 0.19013, -0.076069, -0.12136, -0.20029, 0.33341, -0.14433, 0.078444, 0.48652, -0.10779, -0.1475, -0.42011, 0.46131, -0.039687, 0.37664, -0.096828, -0.12069, -0.19183, 0.49431, -0.21782, -0.16523, -0.30862, 0.30406, 0.37064, -0.049557, 0.0088128, 0.21072, -0.28359, -0.34439, 0.24487, 0.058978, -0.12317, -0.05548, 0.10412, -0.17489, -0.26019, 0.21146, -0.015209, -0.42342, -0.42989, -0.25444, 0.26781, -0.32394, -0.047273, 0.073618, -0.26578, 0.31549, 0.068668, 0.34292, 0.23538, -0.47924, -0.41232, -0.23559, 0.43256, -0.48159, -0.33734, 0.40376, -0.028361, 0.12115, 0.17058, -0.21435, -0.071504, -0.19967, -0.18466, -0.025251, 0.28798, 0.18882, -0.057664, 0.0095174, -0.021526, 0.33367, 0.30706, -0.0325, 0.33593, 0.4343, 0.29183, -0.45338, -0.20041, -0.364, 0.39846, 0.039613, 0.3122, -0.33567, -0.074189, -0.48009, 0.15822, -0.15072, 0.25884, -0.039241, 0.015848, -0.15536, 0.34534, -0.34058, 0.16349, 0.043545, -0.29989, -0.20236, -0.012362, -0.29294, -0.20695, -0.28738, -0.32317, 0.42624, -0.29796, -0.099665, -0.43852, -0.38038, 0.22178, 0.15871, -0.38472, 0.19941, -0.015377, 0.064175, -0.26331, 0.38471, 0.32255, -0.46872, -0.44701, -0.033547, 0.13569, 0.4188, 0.25746, 0.15273, -0.39248, 0.36473, 0.29587, -0.035159, 0.056849, -0.2165, -0.46164, 0.051518, 0.14436, 0.080561, -0.056997, -0.26584, -0.28499, 0.058261, -0.18945, 0.15426, 0.17856, -0.48523, 0.27244, 0.18101, 0.090589, 0.48402, -0.43718, -0.38333, 0.45834, -0.41325, 0.44407, -0.287, -0.041779, 0.48044, 0.040706, 0.015267, -0.43891, 0.072868, -0.20542, 0.27951, 0.0079574, 0.33962, 0.29002, -0.0054653, 0.41612, 0.37572, -0.35653, -0.49848, 0.37429, 0.029265, 0.24228, -0.33127, 0.26669, 0.24247, 0.29388, 0.2558, 0.43638, 0.46375, 0.12204, -0.045337, 0.036491, -0.026907, -0.39805, -0.47708, -0.44847, -0.09719, -0.030356, 0.36961, -0.11572, -0.18255, 0.24779, 0.20663, 0.40452, 0.46209, -0.29062, 0.087359, 0.1714, -0.37367, -0.45876, -0.020363, 0.31023, 0.15803, -0.23957, 0.29644, 0.082103, -0.079295, -0.45606, 0.29965, 0.38325, -0.38568, 0.44394, 0.33135, -0.13835, -0.42327, 0.08231, 0.25101, -0.19271, 0.24508, -0.339, -0.14665, 0.068105, 0.087642, 0.35284, 0.35799, -0.33555, -0.28931, -0.27336, 0.33524, 0.28373, 0.49245, 0.46316, 0.11534, 0.28716, -0.0032706, 0.41053, -0.24189, -0.1251, 0.033885, -0.33904, 0.44145, 0.25772, -0.13585, -0.15234, 0.19424, 0.2965, 0.078184, -0.30684, 0.19071, 0.029234, 0.35251, -0.21112, -0.30128, 0.13661, 0.046194, -0.043011, -0.059084, -0.47392, 0.39173, 0.041638, 0.18413, 0.4199, 0.073311, -0.23805, 0.15285, 0.47848, 0.18538, -0.25775, 0.19801, -0.052907, 0.28883, 0.30286, -0.43485, 0.21123, -0.24945, -0.066374, 0.19526, 0.45404, 0.19103, -0.48432, -0.3872, -0.031244, 0.18436, 0.37103, 0.097829, -0.3012, -0.24594, -0.059547, 0.20226, -0.36079, -0.10802, 0.32259, 0.38239, 0.23198, -0.42448, -0.3639, 0.10356, 0.43575, -0.18714, 0.28725, 0.12789, -0.21957, 0.4056, 0.41048, 0.0086151, 0.3192, -0.051704, -0.22277, 0.07866, -0.0060482, 0.17466, -0.35102, -0.37044, 0.12718, -0.34082, 0.28684, 0.4076, 0.34156, 0.48126, -0.24892, 0.19858, -0.46365, 0.15143, 0.44909, -0.22064, -0.043667, 0.4247, 0.18806, 0.17867, -0.37068, -0.28562, -0.10106, 0.2158, -0.16074, 0.48688, -0.13081, -0.00034302, -0.39392, -0.37365, 0.19207, -0.41617, -0.28464, -0.47732, 0.16329, -0.22053, -0.19104, 0.29035, 0.42953, 0.12332, -0.36979, -0.048777, 0.010316, -0.052026, 0.068673, -0.21614, -0.25923, -0.25004, 0.2422, 0.1613, -0.12607, 0.23325, -0.031749, 0.40718, 0.38796, -0.24917, 0.38017, 0.30208, 0.17531, 0.20076, -0.11897, 0.011568, -0.31641, -0.23226, 0.079632, 0.42783, 0.15826, -0.24459, 0.39776, 0.47041, -0.48191, 0.30105, 0.43291, -0.21003, -0.45474, 0.49014, 0.27158, 0.44108, 0.3962, -0.31189, 0.49059, -0.24164, 0.12308, 0.34341, -0.19584, 0.057603, -0.21187, 0.0040244, 0.03635, -0.49746, -0.31001, 0.4956, 0.04579, 0.36558, 0.23211, 0.26325, -0.36066, -0.46292, 0.10289, -0.03648, 0.45443, 0.34334, -0.0094289, 0.31803, 0.37107, 0.1921, -0.0037295, -0.036104, 0.48718, 0.28682, 0.41103, -0.49164, 0.17386, -0.48869, 0.20645, 0.075121, 0.39049, -0.47098, 0.076394, -0.15787, -0.42626, 0.10009, 0.37123, 0.40798, 0.35851, -0.14765, 0.2503, 0.374, 0.29638, -0.31752, 0.15624, -0.078773, -0.079795, -0.36674, 0.030865, 0.23296, 0.4298, 0.26542, 0.2315, -0.4892, 0.34725, -0.30723, 0.24442, 0.15746, 0.22714, 0.32783, 0.16211, -0.46667, -0.36269, -0.37803, -0.48463, -0.3197, 0.17227, -0.21115, 0.32471, -0.20311, -0.3536, -0.34436, -0.044928, -0.00077682, 0.17439, 0.10082, 0.40403, 0.084352, 0.20737, 0.22521, -0.46634, -0.46281, -0.34297, 0.018948, 0.021784, 0.061599, -0.33042, 0.11504, -0.12574, -0.12818, -0.36467, -0.30319, -0.27309, 0.43264, -0.45203, 0.1814, 0.30519, -0.024493, 0.22976, 0.20972, -0.24999, -0.16425, 0.21404, -0.19274, 0.25403, 0.078641, 0.28309, 0.26435, -0.24393, 0.15355, 0.073238, -0.18439, 0.22381, -0.3091, 0.25599, -0.28215, 0.20967, 0.08758, 0.47796, 0.4688, 0.047854, -0.33387, 0.31734, 0.41039, 0.28337, -0.082771, 0.47746, 0.30871, -0.46644, 0.41212, -0.10439, -0.19446, 0.092849, 0.32017, 0.090967, 0.24287, -0.34499, 0.12708, 0.16305, -0.26809, 0.41629, -0.30126, 0.072018, 0.034499, 0.19553, -0.3275, 0.062634, 0.34675, 0.013262, -0.067059, 0.078507, -0.21541, -0.36237, -0.24082, 0.42918, -0.23793, -0.42903, -0.032792, 0.064863, 0.32348, 0.14091, 0.067942, -0.15247, 0.055867, 0.23576, -0.13839, 0.10872, -0.40872, 0.16052, -0.11488, -0.4307, 0.30231, -0.23723, 0.010168, -0.25222, -0.1487, 0.14852, 0.33309, -0.060867, 0.36881, -0.19733, -0.18541, 0.31024, -0.13847, 0.075273, -0.3175, -0.41706, -0.19246, 0.28814, 0.11906, -0.21512, -0.066905, 0.063648, 0.13089, -0.39247, 0.41807, 0.38384, -0.17463, -0.12738, 0.23558, -0.20609, 0.019568, -0.11632, 0.4542, 0.026509, 0.066013, 0.21073, 0.45957, 0.39582, -0.0052192, -0.19613, 0.16496, -0.13202, -0.089451, -0.48858, -0.29639, 0.075614, -0.32193, 0.42221, -0.070998, -0.33765, -0.22354, -0.16819, 0.08043, 0.42841, 0.04925, 0.04663, -0.25213, -0.032272, -0.055296, 0.41582, 0.11392, -0.055236, -0.10818, -0.41642, -0.0071758, 0.055683, -0.11001, -0.17665, -0.48297, 0.064193, 0.28951, 0.025305, -0.27264, -0.2962, -0.34665, -0.30204, 0.13877, 0.083473, -0.27223, 0.26001, 0.34952, -0.09499, 0.40942, -0.36162, 0.30756, 0.41911, -0.45497, -0.23718, -0.38816, -0.36538, -0.22288, 0.21391, 0.24026, 0.3319, -0.24718, 0.40984, 0.06279, 0.16776, 0.3486, 0.40312, 0.23063, 0.36915, 0.20695, -0.13379, -0.39394, -0.19559, -0.054514, 0.42504, 0.39282, 0.42023, -0.40359, -0.24733, -0.12369, -0.4938, 0.1579, 0.49127, 0.45758, -0.25112, 0.36867, 0.41802, 0.013541, -0.3906, 0.24901, 0.1683, -0.49095, 0.40051, 0.070305, 0.46087, -0.11346, -0.29117, 0.10697, 0.42424, 0.05158, -0.27376, 0.32468, 0.10239, -0.32804, 0.44668, -0.17679, -0.25744, -0.1583, 0.033101, 0.044105, -0.46522, 0.16908, -0.33715, -0.36651, 0.37071, 0.37975, -0.23448, -0.37521, 0.35065, 0.41372, 0.029677, -0.047324, -0.27853, 0.22047, -0.18172, 0.42833, 0.37002, -0.22067, 0.19944, 0.020376, -0.47265, -0.10884, 0.3604, -0.25915, -0.046843, 0.21147, -0.19824, 0.23172, 0.039569, -0.3756, -0.25911, 0.3362, 0.09333, 0.23119, 0.17786, -0.12649, -0.25835, -0.11149, 0.15743, 0.23641, 0.15361, -0.32076, -0.45071, -0.33608, 0.31288, -0.17942, -0.32092, -0.33259, -0.20882, -0.30474, 0.39083, 0.23637, 0.099286, 0.3565, -0.13516, 0.079027, 0.22246, -0.4719, -0.11086, -0.11443, 0.22603, -0.15232, 0.045235, -0.15336, -0.36, 0.39467, 0.25014, -0.28676, -0.16756, 0.46148, -0.21773, -0.048242, 0.37584, -0.24412, 0.1209, 0.49046, -0.0041457, 0.13297, -0.041259, 0.26088, -0.19573, 0.056033, 0.18531, -0.065, -0.23672, -0.46575, 0.24241, 0.077618, -0.25023, -0.47625, -0.3113, 0.37411, -0.39909, 0.12672, -0.37263, 0.4126, 0.38064, 0.43853, 0.41019, -0.056674, -0.33459, -0.36295, -0.32418, 0.21027, 0.46891, -0.466, -0.46667, -0.162, 0.0083709, -0.44616, 0.17898, -0.077476, 0.1315, 0.29877, 0.1735, 0.12066, -0.038645, 0.22753, -0.031406, 0.20157, -0.41596, 0.2344, -0.18026, 0.36373, 0.072731, 0.23484, -0.42522, 0.18392, 0.14348, 0.37235, -0.079774, -0.29373, 0.013033, 0.40874, -0.32737, 0.36113, 0.090787, -0.48463, -0.47882, -0.19824, -0.41527, 0.056434, -0.085579, 0.090681, 0.36372, 0.37567, 0.072536, -0.14411, -0.16844, -0.13555, 0.44008, 0.10343, -0.29178, 0.13393, 0.17173, 0.23845, -0.28733, 0.10653, 0.33061, 0.32604, -0.45881, -0.047451, 0.11033, -0.40209, 0.47972, 0.021312, -0.47213, 0.19657, 0.48013, 0.042219, -0.42479, -0.27467, -0.062732, 0.4416, -0.44348, 0.098209, 0.20603, -0.46067, 0.40755, 0.38475, 0.39313, -0.18524, -0.025597, -0.23203, 0.39903, -0.42294, -0.097595, 0.47989, -0.14185, -0.42379, 0.22316, 0.42485, -0.30559, 0.050834, -0.0079572, -0.17954, 0.096277, 0.21489, -0.032913, 0.3539, 0.049262, 0.35536, -0.13197, -0.074256, 0.3632, -0.17991, 0.35403, -0.48392, -0.22867, -0.057303, 0.10397, 0.43998, -0.291, 0.35273, 0.35606, 0.43397, 0.12664, 0.091007, -0.14036, 0.059258, -0.056179, 0.43982, -0.41609, 0.21895, 0.12451, 0.077422, -0.47459, -0.36552, 0.16446, 0.28467, -0.011437, -0.01293, -0.2064, -0.053477, -0.11825, 0.19512, 0.18024, 0.022737, 0.38562, 0.29667, 0.00070881, 0.00088776, -0.0536, -0.34491, -0.31911, -0.22554, -0.49498, -0.25007, 0.043631, 0.29246, -0.48033, 0.076798, 0.24936, -0.31061, 0.057582, 0.27043, 0.026652, -0.014419, -0.051725, -0.46497, 0.17117, -0.16532, -0.076288, -0.4082, -0.0087633, -0.26436, 0.26697, 0.10241, -0.31058, -0.092289, 0.38824, -0.45235, 0.29527, 0.4747, -0.10087, 0.11159, -0.4284, 0.42251, 0.38319, -0.1141, 0.42791, -0.25456, 0.25373, 0.0096881, 0.41396, 0.074086, 0.025106, -0.42598, -0.20974, 0.41406, 0.18945, -0.0016064, -0.30888, 0.37769, 0.48837, -0.12141, -0.094914, 0.43653, 0.34595, -0.31854, 0.084073, 0.069653, -0.022803, -0.43057, 0.10418, -0.20816, -0.42925, 0.054953, 0.4988, -0.16047, -0.23516, 0.034114, 0.38194, -0.21417, -4.8303e-05, 0.026779, 0.46955, 0.40683, 0.0073117, -0.31131, -0.10488, 0.28635, 0.17687, 0.10463, -0.25912, -0.24199, 0.14354, -0.30858, 0.099776, 0.11921, 0.2272, -0.23544, 0.44401, -0.43168, 0.27997, -0.041972, -0.11412, 0.34743, 0.44816, -0.41878, -0.29446, -0.24441, 0.18672, 0.30735, 0.23783, -0.36923, -0.12806, -0.25214, -0.11837, 0.47339, -0.4676, -0.18595, -0.25343, -0.40667, -0.20656, -0.30353, 0.0009113, -0.41643, 0.062254, 0.26352, -0.019303, 0.36458, 0.38443, 0.09825, 0.0074603, -0.13812, -0.10078, 0.26336, 0.24546, 0.35033, -0.4035, 0.45857, 0.0089987, 0.19003, 0.33746, 0.093962, -0.2389, -0.15638, -0.47921, 0.055032, -0.2482, 0.35777, 0.46037, -0.16561, 0.49839, 0.49093, 0.37748, -0.14947, -0.033054, 0.25937, -0.41354, 0.19537, -0.2133, -0.37189, 0.074902, 0.35805, 0.4674, 0.020659, -0.23374, 0.36404, -0.36306, -0.10543, 0.18874, 0.0013834, -0.26576, 0.36982, 0.36043, 0.2841, 0.10358, -0.12856, 0.47006, 0.056047, -0.22898, -0.37091, 0.42765, -0.034695, 0.38329, -0.30874, 0.27122, -0.046436, -0.17591, 0.39508, -0.047647, 0.07953, 0.12519, -0.058762, 0.43988, -0.087084, -0.13373, -0.41518, -0.22891, 0.20793, 0.49325, 0.1288, -0.17133, -0.00010852, -0.16314, 0.15775, -0.18055, -0.47789, -0.0023979, 0.44382, -0.14087, -0.42843, 0.26456, 0.40702, 0.46441, -0.40474, 0.24097, -0.23061, 0.35372, -0.24716, 0.22003, 0.42645, -0.43028, 0.26884, 0.3054, 0.35755, 0.40679, -0.28415, -0.20925, -0.032353, 0.14719, 0.44802, -0.41606, -0.084949, -0.23927, 0.044417, -0.076354, -0.47244, -0.064705, -0.13062, 0.47111, 0.24187, -0.0034126, -0.31395, 0.34258, -0.17249, 0.033382, -0.15577, -0.25346, -0.34882, 0.43715, -0.16197, -0.22403, -0.12593, -0.012844, -0.13064, -0.42125, 0.39819, -0.051563, -0.17661, 0.33985, 0.27223, -0.45974, -0.45301, 0.29263, 0.41288, 0.33409, 0.1879, -0.14693, -0.29073, 0.0090716, -0.011438, -0.42843, -0.11491, 0.11758, -0.41272, -0.33526, 0.082386, -0.37336, -0.42684, -0.41112, -0.23648, -0.265, -0.23915, 0.39558, -0.15854, -0.48441, -0.13082, -0.076377, 0.37726, -0.020274, 0.19169, 0.36973, -0.056997, -0.11559, 0.37399, -0.27013, 0.39228, -0.17985, 0.17713, 0.47154, -0.21293, 0.11367, -0.24114, 0.24205, 0.41218, -0.15889, 0.1076, -0.47006, -0.35954, 0.23229, -0.17659, -0.40387, -0.12724, 0.21728, 0.16262, -0.37726, -0.24431, -0.35847, 0.20021, 0.145, 0.12547, 0.35666, 0.20095, -0.29833, -0.10907, 0.18293, 0.30798, -0.12097, -0.43923, 0.1022, -0.1513, -0.49863, -0.2259, -0.49084, 0.014785, 0.42647, 0.3855, 0.44513, -0.015755, 0.34738, 0.012724, 0.44973, 0.1615, 0.38147, 0.47389, -0.45605, -0.11056, 0.42163, -0.029208, 0.11893, -0.047697, -0.49272, 0.25811, -0.10159, -0.27665, 0.21945, -0.22712, 0.19364, -0.45951, -0.35364, -0.47505, 0.2934, -0.28689, 0.46778, 0.42233, -0.12556, -0.11677, 0.15174, 0.48629, -0.47207, -0.3416, -0.34029, -0.03267, -0.24073, -0.49708, -0.27609, -0.33307, -0.19638, -0.034213, -0.39648, 0.46717, 0.17615, 0.31192, 0.37569, 0.1755, 0.442, -0.1035, 0.092107, -0.44815, 0.37009, 0.32076, -0.12648, 0.20925, 0.41129, 0.10768, -0.15272, 0.33517, -0.21986, 0.43483, 0.43042, 0.028225, 0.27805, -0.22729, 0.44524, -0.49469, -0.21623, -0.21564, -0.44496, 0.11018, -0.016952, -0.24102, -0.30702, -0.001134, 0.10372, -0.34539, 0.19402, 0.34516, -0.20669, 0.19933, 0.39451, 0.26182, 0.28155, 0.021353, -0.47458, -0.46886, -0.23008, 0.27411, -0.31312, 0.19139, -0.20004, 0.027812, -0.044633, -0.20748, 0.35534, -0.42644, 0.46751, -0.21379, -0.052944, -0.42715, 0.10875, -0.052115, -0.13558, 0.078894, -0.047655, -0.26093, -0.24903, 0.089856, 0.24977, 0.13245, -0.24099, 0.22057, -0.35055, -0.014221, -0.32355, 0.14605, 0.2844, 0.44002, 0.25257, 0.11732, -0.24572, -0.13175, 0.02287, -0.052863, -0.38913, -0.3816, 0.36094, 0.08312, 0.078186, -0.35655, -0.34138, 0.21076, 0.25404, 0.087027, -0.30153, -0.084346, 0.38235, -0.29209, -0.43381, -0.12643, 0.023295, -0.32811, -0.39107, -0.36948, 0.26303, -0.33865, -0.25948, 0.025533, -0.15966, 0.36699, 0.25787, -0.033385, -0.13779, -0.42942, -0.18132, 0.088569, 0.45794, -0.38583, -0.13714, 0.026654, -0.013965, -0.14648, 0.068581, 0.34127, 0.40554, -0.44635, 0.19868, -0.042817, -0.19247, 0.42671, 0.17727, -0.25292, 0.47547, 0.15052, -0.25296, 0.10937, 0.18996, -0.43392, 0.44322, 0.27014, -0.15358, 0.078664, 0.0011904, -0.22474, -0.35705, -0.37223, 0.042562, 0.11402, -0.39551, 0.23687, 0.13537, 0.20154, -0.14607, -0.22833, -0.050467, 0.47833, -0.015973, -0.19067, 0.4253, -0.29044, 0.15742, 0.18793, 0.26834, -0.24567, -0.34691, -0.04466, 0.037754, 0.38607, 0.29502, 0.2579, 0.16536, -0.057552, 0.15726, 0.32224, -0.3545, -0.39426, 0.22696, 0.22999, -0.32066, 0.30578, -0.49005, -0.21539, -0.085548, 0.06295, 0.1594, -0.028874, 0.38742, 0.11717, 0.21854, -0.40909, -0.40014, 0.01169, -0.16107, 0.20478, -0.38072, 0.24375, 0.45582, -0.44115, 0.48024, 0.082361, -0.046713, 0.088412, -0.23541, -0.3934, 0.48039, 0.11723, -0.10453, -0.10939, -0.11401, 0.25732, -0.14159, 0.031347, -0.045649, 0.11403, 0.10786, 0.1871};
